{
  "_type": "DynamicMap",
  "_version": "2",
  "model": {
    "_type": "Model",
    "_version": "2",
    "nodes": [
    {
      "_type": "InputNode<float>",
      "_version": "2",
      "id":       "1006",
      "size": 784,
      "shape": [28, 28, 1]
    }, 
    {
      "_type": "NeuralNetworkPredictorNode<float>",
      "_version": "0",
      "id":       "1007",
      "input": {
        "_type": "InputPort<float>",
        "_version": "0",
        "nodeId":         "1007",
        "name": "input",
        "type": 1,
        "input":         "1006.output[0:784]"
      },
      "predictor": {
        "_type": "NeuralNetworkPredictor<float>",
        "_version": "1",
        "inputLayer": {
          "_type": "InputLayer<float>",
          "_version": "0",
          "inputPaddingScheme": 0,
          "inputPaddingSize": 0,
          "outputShape": [28, 28, 1],
          "outputPaddingScheme": 0,
          "outputPaddingSize": 0,
          "data_rows": 28,
          "data_columns": 28,
          "data_channels": 1,
          "data_values": [0, 0, 0, 0, 0, 0, 0, 0, 0, 0, 0, 0, 0, 0, 0, 0, 0, 0, 0, 0, 0, 0, 0, 0, 0, 0, 0, 0, 0, 0, 0, 0, 0, 0, 0, 0, 0, 0, 0, 0, 0, 0, 0, 0, 0, 0, 0, 0, 0, 0, 0, 0, 0, 0, 0, 0, 0, 0, 0, 0, 0, 0, 0, 0, 0, 0, 0, 0, 0, 0, 0, 0, 0, 0, 0, 0, 0, 0, 0, 0, 0, 0, 0, 0, 0, 0, 0, 0, 0, 0, 0, 0, 0, 0, 0, 0, 0, 0, 0, 0, 0, 0, 0, 0, 0, 0, 0, 0, 0, 0, 0, 0, 0, 0, 0, 0, 0, 0, 0, 0, 0, 0, 0, 0, 0, 0, 0, 0, 0, 0, 0, 0, 0, 0, 0, 0, 0, 0, 0, 0, 0, 0, 0, 0, 0, 0, 0, 0, 0, 0, 0, 0, 0, 0, 0, 0, 0, 0, 0, 0, 0, 0, 0, 0, 0, 0, 0, 0, 0, 0, 0, 0, 0, 0, 0, 0, 0, 0, 0, 0, 0, 0, 0, 0, 0, 0, 0, 0, 0, 0, 0, 0, 0, 0, 0, 0, 0, 0, 0, 0, 0, 0, 0, 0, 0, 0, 0, 0, 0, 0, 0, 0, 0, 0, 0, 0, 0, 0, 0, 0, 0, 0, 0, 0, 0, 0, 0, 0, 0, 0, 0, 0, 0, 0, 0, 0, 0, 0, 0, 0, 0, 0, 0, 0, 0, 0, 0, 0, 0, 0, 0, 0, 0, 0, 0, 0, 0, 0, 0, 0, 0, 0, 0, 0, 0, 0, 0, 0, 0, 0, 0, 0, 0, 0, 0, 0, 0, 0, 0, 0, 0, 0, 0, 0, 0, 0, 0, 0, 0, 0, 0, 0, 0, 0, 0, 0, 0, 0, 0, 0, 0, 0, 0, 0, 0, 0, 0, 0, 0, 0, 0, 0, 0, 0, 0, 0, 0, 0, 0, 0, 0, 0, 0, 0, 0, 0, 0, 0, 0, 0, 0, 0, 0, 0, 0, 0, 0, 0, 0, 0, 0, 0, 0, 0, 0, 0, 0, 0, 0, 0, 0, 0, 0, 0, 0, 0, 0, 0, 0, 0, 0, 0, 0, 0, 0, 0, 0, 0, 0, 0, 0, 0, 0, 0, 0, 0, 0, 0, 0, 0, 0, 0, 0, 0, 0, 0, 0, 0, 0, 0, 0, 0, 0, 0, 0, 0, 0, 0, 0, 0, 0, 0, 0, 0, 0, 0, 0, 0, 0, 0, 0, 0, 0, 0, 0, 0, 0, 0, 0, 0, 0, 0, 0, 0, 0, 0, 0, 0, 0, 0, 0, 0, 0, 0, 0, 0, 0, 0, 0, 0, 0, 0, 0, 0, 0, 0, 0, 0, 0, 0, 0, 0, 0, 0, 0, 0, 0, 0, 0, 0, 0, 0, 0, 0, 0, 0, 0, 0, 0, 0, 0, 0, 0, 0, 0, 0, 0, 0, 0, 0, 0, 0, 0, 0, 0, 0, 0, 0, 0, 0, 0, 0, 0, 0, 0, 0, 0, 0, 0, 0, 0, 0, 0, 0, 0, 0, 0, 0, 0, 0, 0, 0, 0, 0, 0, 0, 0, 0, 0, 0, 0, 0, 0, 0, 0, 0, 0, 0, 0, 0, 0, 0, 0, 0, 0, 0, 0, 0, 0, 0, 0, 0, 0, 0, 0, 0, 0, 0, 0, 0, 0, 0, 0, 0, 0, 0, 0, 0, 0, 0, 0, 0, 0, 0, 0, 0, 0, 0, 0, 0, 0, 0, 0, 0, 0, 0, 0, 0, 0, 0, 0, 0, 0, 0, 0, 0, 0, 0, 0, 0, 0, 0, 0, 0, 0, 0, 0, 0, 0, 0, 0, 0, 0, 0, 0, 0, 0, 0, 0, 0, 0, 0, 0, 0, 0, 0, 0, 0, 0, 0, 0, 0, 0, 0, 0, 0, 0, 0, 0, 0, 0, 0, 0, 0, 0, 0, 0, 0, 0, 0, 0, 0, 0, 0, 0, 0, 0, 0, 0, 0, 0, 0, 0, 0, 0, 0, 0, 0, 0, 0, 0, 0, 0, 0, 0, 0, 0, 0, 0, 0, 0, 0, 0, 0, 0, 0, 0, 0, 0, 0, 0, 0, 0, 0, 0, 0, 0, 0, 0, 0, 0, 0, 0, 0, 0, 0, 0, 0, 0, 0, 0, 0, 0, 0, 0, 0, 0, 0, 0, 0, 0, 0, 0, 0, 0, 0, 0, 0, 0, 0, 0, 0, 0, 0, 0, 0, 0, 0, 0, 0, 0, 0, 0, 0, 0, 0, 0, 0, 0, 0, 0, 0, 0, 0, 0, 0, 0, 0, 0, 0, 0, 0, 0, 0, 0, 0, 0, 0, 0, 0, 0, 0, 0, 0, 0, 0, 0, 0, 0, 0, 0, 0, 0, 0, 0, 0, 0, 0, 0, 0, 0, 0, 0, 0],
          "scale": 1
        },
        "layers": [
        {
          "_type": "ConvolutionalLayer<float>",
          "_version": "0",
          "inputPaddingScheme": 0,
          "inputPaddingSize": 0,
          "outputShape": [24, 24, 6],
          "outputPaddingScheme": 0,
          "outputPaddingSize": 0,
          "receptiveField": 5,
          "stride": 1,
          "method": 0,
          "numFiltersAtATime": 6,
          "weights_rows": 30,
          "weights_columns": 5,
          "weights_channels": 1,
          "weights_values": [-0.15672, -0.210203, -0.0877449, -0.157963, 0.0628763, 0.0302946, -0.207123, -0.206849, 0.219247, 0.144513, -0.301481, -0.168232, 0.221063, 0.264958, 0.0519513, -0.232568, -0.0665812, 0.418148, 0.202238, -0.183032, -0.145847, 0.258274, 0.276229, -0.100573, -0.230346, -0.257225, -0.304255, -0.349326, 0.0811825, 0.332599, 0.30829, -0.487876, -0.667784, -0.388166, -0.0609712, 0.456103, 0.137385, -0.524251, -0.64304, -0.516702, 0.494874, 0.428164, 0.0383782, -0.311337, -0.456464, 0.231357, 0.64211, 0.819848, 0.817822, 0.30122, -0.167487, 0.247255, 0.203141, -0.215451, -0.428803, -0.0653003, -0.201271, -0.834509, -0.723112, -0.281914, -0.0586199, -0.656757, -0.612357, 0.134423, 0.546148, 0.0663075, 0.0909153, 0.161843, 0.704541, 0.413857, 0.282548, 0.760268, 0.650768, 0.30997, -0.359504, -0.0603206, 0.284022, 0.218571, -0.0454034, -0.0777261, -0.0645095, 0.653776, 0.0874465, -0.393841, 0.00196139, 0.0098375, 0.647402, -0.21773, -0.617209, -0.145761, 0.0332078, 0.784837, 0.690455, 0.00294572, -0.0873266, 0.0521743, 0.129441, 0.697481, 0.532486, -0.0298678, 0.364085, 0.622833, 0.0441871, -0.602027, -0.342221, 0.518964, 0.531333, -0.474901, -0.432676, -0.218818, 0.681226, 0.306168, -0.374947, -0.389475, -0.259053, 0.327651, 0.288619, -0.219405, -0.229084, -0.0550775, 0.31462, 0.0900375, -0.13964, -0.057955, 0.0449893, 0.0285993, 0.155807, -0.126929, -0.232399, 0.0937711, 0.0719011, -0.166179, -0.324114, -0.181112, 0.163748, 0.0953777, -0.0605129, 0.248498, 0.555424, 0.582276, 0.0593722, 0.137526, 0.327864, 0.0326173, 0.0374587, 0.128635, 0.0529852, -0.248163, -0.521028, -0.460988]
        }, 
        {
          "_type": "BiasLayer<float>",
          "_version": "0",
          "inputPaddingScheme": 0,
          "inputPaddingSize": 0,
          "outputShape": [24, 24, 6],
          "outputPaddingScheme": 0,
          "outputPaddingSize": 0,
          "bias": [-0.142767, -0.115024, 0.113092, -0.968994, -0.330364, -0.148168]
        }, 
        {
          "_type": "ActivationLayer<float,ReLUActivation>",
          "_version": "0",
          "inputPaddingScheme": 0,
          "inputPaddingSize": 0,
          "outputShape": [24, 24, 6],
          "outputPaddingScheme": 4,
          "outputPaddingSize": 0
        }, 
        {
          "_type": "PoolingLayer<float,MaxPoolingFunction>",
          "_version": "0",
          "inputPaddingScheme": 4,
          "inputPaddingSize": 0,
          "outputShape": [16, 16, 6],
          "outputPaddingScheme": 0,
          "outputPaddingSize": 2,
          "poolingSize": 2,
          "stride": 2
        }, 
        {
          "_type": "ConvolutionalLayer<float>",
          "_version": "0",
          "inputPaddingScheme": 0,
          "inputPaddingSize": 2,
          "outputShape": [12, 12, 16],
          "outputPaddingScheme": 0,
          "outputPaddingSize": 0,
          "receptiveField": 5,
          "stride": 1,
          "method": 0,
          "numFiltersAtATime": 16,
          "weights_rows": 80,
          "weights_columns": 5,
          "weights_channels": 6,
          "weights_values": [0.012819, -0.260525, 0.184809, -0.244142, -0.175233, -0.107568, 0.00181287, -0.0816384, -0.126976, 0.222988, 0.260962, -0.0014191, -0.00296328, -0.154212, -0.130031, -0.0516665, 0.23211, -0.0866431, -0.0886482, -0.0460204, 0.0432728, -0.25799, -0.00707725, -0.0372184, 0.0315168, -0.121388, -0.0700181, -0.0669243, -0.0357332, 0.0411113, 0.176276, -0.156963, -0.219221, -0.0525969, -0.0144439, 0.0243264, 0.0239329, -0.084048, -0.16043, 0.221644, 0.463069, -0.0164918, -0.0774696, -0.112378, -0.162789, -0.192306, 0.0609748, 0.0333855, 0.0401507, -0.0619636, -0.0196514, -0.293208, -0.0661187, 0.00938748, 0.0926458, -0.0543795, 0.077219, 0.0800975, -0.0874419, -0.0355674, -0.055605, -0.108004, -0.260973, -0.108754, 0.266516, -0.102056, 0.0376457, -0.0421115, -0.211122, 0.0686351, 0.168416, -0.104211, 0.0181315, -0.148856, -0.230665, -0.150496, 0.041312, -0.00956112, -0.0832179, -0.274585, -0.244457, -0.27615, -0.118796, 0.0712992, 0.00383604, -0.0826522, 0.0442482, 0.00953772, -0.00807521, 0.0899014, -0.0680263, -0.097634, -0.21616, -0.294559, -0.0103201, -0.151328, -0.0807822, -0.0957251, 0.0439809, 0.0162412, -0.143682, -0.0794985, 0.0267091, 0.0377989, -0.207682, -0.0470077, -0.00191368, -0.0396031, -0.0429704, -0.146337, -0.221287, -0.12406, -0.0539242, -0.151722, -0.0795704, -0.168026, -0.258292, -0.127756, 0.0674592, 0.0790283, -0.0740409, 0.237339, 0.289495, -0.1878, -0.128232, 0.0757083, 0.0376426, 0.286064, 0.373807, 0.0154827, -0.0191361, 0.0880607, 0.011576, 0.388553, 0.237349, 0.186946, -0.0809611, -0.116926, -0.0523649, 0.505078, 0.00149651, 0.27097, -0.00580888, -0.224042, -0.0749417, 0.283009, -0.0771227, 0.192605, 0.0510041, -0.129327, 0.0296302, -0.0322142, 0.03998, -0.0268296, -0.0129213, -0.00948436, -0.0728086, -0.388197, -0.00735218, 0.0428552, -0.0835101, -0.0838258, 0.0545079, -0.308061, -0.0243167, -0.0909107, -0.0509757, 0.0522651, 0.184085, -0.191928, 0.139759, 0.0586964, -0.0309194, 0.108503, -0.0157115, -0.0495331, -0.0863924, 0.0242929, -0.0620859, 0.0645833, 0.0141726, -0.0504679, -0.223343, 0.146217, 0.0354694, 0.0785927, -0.0297949, -0.0934688, -0.473219, 0.298975, -0.0904943, -0.124027, -0.0775967, 0.0178086, -0.186883, 0.594132, 0.015995, -0.00807862, -0.180859, 0.340619, 0.252634, 0.694614, 0.090955, 0.0933039, -0.034749, 0.128796, 0.045592, 0.188755, -0.216031, 0.149575, 0.00467702, -0.128152, -0.0168011, 0.061993, 0.102295, -0.00981827, -0.105901, -0.121179, -0.513761, -0.105803, -0.155157, -0.100691, -0.238933, -0.0371333, -0.519642, -0.0442821, -0.211737, 0.0499008, -0.183073, 0.175659, -0.248911, -0.0131603, -0.121684, 0.0716717, -0.155074, 0.437283, 0.0893569, 0.202023, -0.166893, 0.180804, -0.0269951, -0.0810275, 0.0365118, -0.040489, -0.0124086, -0.138781, 0.0767948, 0.0347378, 0.044065, -0.05915, -0.251966, -0.0458006, 0.0203967, -0.000671436, -0.0263541, -0.293864, -0.245446, -0.0994812, -0.135635, -0.210888, -0.225146, -0.129226, -0.117531, 0.0703969, 0.0122116, -0.122211, -0.12133, 0.00854411, 0.0356699, -0.0523215, -0.00717554, -0.186549, 0.12342, -0.252237, -0.03606, 0.0278057, 0.0632192, -0.0640596, 0.260892, -0.175315, -0.0430852, -0.120784, 0.157342, -0.0237855, 0.293129, 0.0514848, -0.178321, 0.0412239, 0.222341, -0.0133544, 0.0249157, -0.122505, -0.0244991, -0.0444007, 0.00498277, -0.253681, -0.0287466, -0.147926, 0.104473, -0.14796, 0.143705, -0.144084, 0.0694566, 0.140954, -0.000907956, -0.06089, 0.0582989, -0.0803654, 0.00483629, 0.138796, 0.0993323, 0.0325839, -0.0475077, -0.244752, -0.0766033, 0.0134424, 0.116217, 0.0188043, -0.0165358, -0.105939, -0.071595, -0.116604, 0.173366, 0.0916668, 0.132074, -0.0856802, 0.239768, -0.0338802, -0.0495698, 0.127789, 0.0689269, -0.0619135, -0.117271, -0.146639, 0.119112, 0.0196494, -0.053083, -0.0655989, -0.123097, -0.108508, 0.0851629, 0.0266719, 0.0387907, -0.131662, -0.0836369, -0.200366, 0.0330913, -0.00981557, -0.0657258, -0.0312065, -0.0822647, -0.218491, -0.0437935, 0.126153, 0.0193538, -0.00486836, -0.0559251, -0.0492084, -0.0702183, 0.0360155, 0.018906, -0.131269, -0.0408186, -0.193125, -0.0973764, -0.014349, -0.0540977, -0.130592, -0.0654323, -0.100057, -0.10245, -0.0130093, -0.0614336, -0.063376, -0.165311, -0.123494, -0.107331, 0.0752407, 0.0493623, -0.128605, 0.0329927, -0.177291, -0.0928395, -0.0431385, -0.0621231, 0.051579, -0.0613516, -0.0783254, -0.0680311, 0.00222016, -0.0571447, 0.430996, 0.239728, 0.224134, 0.00701374, -0.00541079, -0.0788573, 0.264102, 0.205457, -0.0778819, 0.00193725, -0.102957, -0.0909759, 0.0259747, 0.0565127, -0.0831251, -0.0475752, 0.0515833, 0.0634387, -0.0973802, -0.141761, -0.00964993, -0.119092, -0.108533, 0.102858, -0.0642215, 0.164308, -0.0355474, -0.0178896, 0.0692282, -0.147746, -0.0134365, -0.214807, -0.0458294, -0.123481, 0.0186045, 0.0411413, 0.304476, 0.0296676, 0.0734507, -0.0825387, -0.179062, 0.0894233, 0.185642, 0.00862982, 0.0646632, -0.0173993, -0.027461, -0.0533399, -0.0572968, -0.0250137, -0.0228484, -0.0320709, 0.0323474, 0.0210491, 0.0158176, -0.0720986, -0.0822331, 0.0505988, -0.051393, 0.0759873, 0.236372, 0.0634831, -0.154773, -0.056308, -0.0427528, -0.134668, 0.169374, 0.12359, -0.199008, -0.17995, -0.0595095, -0.128497, 0.0703489, 0.221568, -0.286594, -0.396535, -0.0708183, 0.00135767, 0.0246813, 0.130739, -0.0121155, -0.123963, -0.0410172, -0.115552, 0.143385, 0.00653503, -0.00814394, -0.170231, -0.0723245, 0.0394457, -0.00776655, -0.0159827, -0.1052, -0.0607983, -0.0845608, -0.0241413, -0.0586119, 0.141876, -0.352793, -0.166819, -0.0420884, 0.0595682, -0.148396, -0.0230945, -0.165525, -0.182342, 0.0471938, -0.0470364, -0.0633534, 0.0241581, 0.0127711, -0.0571963, 0.0481542, 0.0669786, -0.0239295, -0.0461478, -0.0479792, -0.132256, -0.00939105, -0.10898, -0.0731476, -0.0503272, -0.287766, -0.0893615, -0.106478, 0.128801, -0.117002, 0.269262, -0.179235, -0.151614, 0.0871649, 0.09954, -0.229674, 0.0227826, 0.15915, -0.0186381, 0.0881498, -0.0729236, -0.0981556, -0.368651, -0.0420507, 0.159043, 0.0421797, 0.0374842, -0.0797247, -0.144789, -0.352382, -0.0922891, -0.102903, 0.037261, -0.114969, 0.375028, -0.327652, -0.107373, 0.0269363, 0.214873, -0.249929, 0.0873292, -0.217149, -0.139642, 0.210975, 0.0255587, -0.195894, -0.264231, 0.238954, 0.266682, 0.0624221, 0.0306661, -0.0331568, -0.070991, 0.114156, 0.385047, -0.0271969, 0.0487926, -0.0558759, 0.0807717, -0.326932, -0.0889956, -0.0214273, 0.120556, 0.0196837, 0.195234, -0.111695, -0.220184, 0.11187, -0.0618402, -0.0821637, -0.113142, 0.18702, 0.26662, -0.0992091, -0.0788993, -0.331648, -0.233938, 0.207087, 0.273324, -0.0799284, -0.0474928, -0.187224, -0.00735214, -0.24565, 0.102796, 0.0900945, 0.165593, -0.221352, -0.191826, -0.171836, -0.219182, 0.0596376, -0.0231271, -0.212118, -0.235938, 0.310918, 0.193936, -0.0121344, -0.00500406, -0.0974502, -0.211242, 0.196252, 0.169541, -0.117804, -0.0123712, 0.0315607, -0.101225, -0.0519887, 0.142434, -0.142305, 0.0628748, -0.0526384, -0.369467, -0.146778, -0.116779, -0.0964254, -0.0378504, -0.157799, 0.00590094, -0.232052, 0.00531276, -0.119429, -0.0813864, -0.186241, 0.0401759, 0.273865, 0.0611351, 0.111032, -0.0901884, -0.055265, -0.0508557, 0.0669544, -0.0405266, -0.0158506, 0.00115276, -0.200131, -0.114382, 0.0115405, 0.0827098, -0.033942, 0.0516545, -0.0264414, 0.026506, -0.199912, 0.0486293, -0.0659745, 0.155631, 0.0804316, 0.28478, -0.3475, -0.0934094, 0.145008, 0.0383933, -0.150359, 0.00426092, 0.0916748, 0.0781887, -0.0279527, -0.0930807, -0.1651, -0.137751, -0.0205506, -0.0344559, 0.0712904, 0.0384893, 0.137542, -0.1105, -0.154877, -0.0721983, -0.0113802, 0.142545, -0.0992688, 0.237422, -0.189273, 0.00974989, 0.00662076, 0.15873, -0.20363, -0.00124026, -0.103914, -0.150566, 0.112397, -0.036383, -0.0449274, 0.162925, -0.0712101, -0.0494696, -0.0747095, 0.0238781, 0.00747992, -0.0526022, -0.0393873, 0.0322573, 0.0215559, 0.13818, -0.120368, 0.0370062, -0.286227, 0.0829651, -0.101533, 0.0303997, -0.26418, -0.000455257, -0.00050978, -0.0935906, -0.0623215, 0.0938472, 0.0763259, -0.235109, 0.481278, 0.157407, 0.00438756, -0.0332627, 0.106773, 0.1894, 0.0426513, -0.0477445, -0.0544317, -0.0545161, 0.0539333, 0.137022, -0.116021, 0.0440011, 0.0338452, 0.0129817, -0.0711688, -0.19455, -0.186142, -0.0586022, -0.0173108, 0.0888447, -0.0322133, -0.409299, 0.174838, 0.156641, -0.0235795, -0.174169, -0.0861789, -0.185192, 0.547336, 0.0429327, 0.252379, -0.00358616, -0.00756447, -0.253079, 0.134181, -0.133561, -0.00214449, -0.0593785, -0.0514993, -0.0329217, 0.0877037, 0.264606, -0.0239769, -0.0296724, -0.172778, -0.0807312, -0.352878, -0.157089, -0.0456262, 0.0502142, -0.370221, -0.2105, -0.0771686, -0.141941, -0.134619, -0.0418817, -0.0468455, -0.175369, 0.219382, 0.236645, -0.0364022, -0.0699057, -0.157903, 0.0165582, 0.00492168, -0.0625982, -0.0611343, 0.0336426, -0.0234965, 0.236244, -0.163545, -0.00802528, 0.0906442, 0.0383166, -0.0494052, 0.0694066, 0.00932402, -0.230985, 0.104541, 0.0243694, -0.0330405, 0.0113594, 0.24885, -0.0639259, 0.0701406, -0.022234, -0.0827984, 0.0508576, 0.304046, 0.445481, 0.146096, 0.122211, -0.00988472, 0.27929, -0.0358436, -0.027162, -0.00697162, 0.00828179, -0.0825175, 0.212308, -0.0830726, -0.0884563, 0.0152201, 0.0962476, 0.0282678, 0.0432212, 0.176128, -0.0579337, -0.0075706, 0.0206492, 0.038311, 0.0403702, 0.180685, 0.0481516, 0.17484, -0.0298441, 0.0311246, -0.0797819, -0.0657085, 0.199721, -0.121436, 0.123493, -0.176745, 0.108798, -0.157425, -0.143982, 0.0999248, -0.0663987, -0.0367221, -0.0954948, -0.135555, 0.0097493, 0.0527865, -0.0291883, -0.10116, -0.144845, -0.0983165, -0.0446338, 0.0626646, -0.0285882, -0.0947359, -0.1269, -0.178436, -0.112006, -0.0137365, -0.0755994, -0.110913, -0.0880942, -0.301784, 0.0848615, -0.0106544, -0.0304277, 0.224806, 0.172761, -0.0191266, -0.182407, -0.0243686, -0.0467208, 0.153333, -0.100381, 0.000436066, 0.0465338, -0.198965, -0.105282, 0.193386, 0.0443754, -0.0648897, -0.147626, -0.065503, -0.0815781, 0.0259265, 0.165596, -0.220544, -0.236606, -0.140687, -0.0812775, 0.0277865, -0.0874989, -0.22343, -0.210088, -0.155834, 0.0791973, -0.0416708, 0.0277917, -0.0278901, 0.0551229, -0.0882131, 0.175875, -0.123686, -0.0201474, -0.178318, -0.0196646, -0.0762026, 0.0381816, -0.0331451, -0.0868348, -0.155117, 0.162686, -0.0658822, 0.0236404, -0.163639, -0.173133, -0.178053, 0.0414894, 0.0392192, 0.0492234, 0.0363378, -0.160741, -0.0671625, -0.0855848, -0.152584, -0.0118735, 0.0457975, -0.13302, 0.116118, 0.0719351, 0.0309927, -0.00957466, 0.0474376, -0.0515954, 0.128679, -0.0298566, 0.0911727, 0.0388326, 0.245807, 0.370386, 0.285255, 0.0655596, 0.119547, -0.0195097, 0.383948, 0.498808, 0.258614, 0.0102138, -0.0640927, 0.0448887, 0.244252, 0.409777, 0.207042, -0.0120551, 0.0149894, 0.0395266, 0.06487, -0.0029708, -0.145229, -0.0669139, 0.0255255, -0.00112448, -0.185569, -0.188818, -0.187147, -0.0259478, 0.110848, -0.0896073, -0.0764352, 0.198614, -0.0914415, -0.135328, 0.342839, -0.0143911, -0.250094, -0.0194602, -0.15942, -0.271782, 0.181435, -0.00886099, -0.311333, -0.417609, 0.014555, -0.258942, 0.193954, -0.0479508, 0.070996, -0.112037, 0.00683652, -0.0414509, -0.100341, 0.159552, 0.0838171, -0.0637454, -0.0158877, 0.121181, -0.00897337, 0.136525, 0.0305564, -0.193384, -0.0135367, 0.00105377, -0.0479584, -0.0623835, -0.0914216, -1.88849e-05, -0.0552281, -0.190457, -0.112048, 0.0323661, -0.394529, -0.0132718, -0.0950607, -0.21318, -0.0754783, -0.0163613, -0.0695569, -0.066769, -0.0677667, 0.00143509, 0.0183128, 0.103731, -0.00983447, -0.0454313, 0.01348, 0.0667315, -0.0369886, -0.0171721, -0.114658, 0.113086, -0.148302, -0.0382989, 0.0985611, -0.0474163, -0.217688, 0.152273, -0.256269, -0.273155, 0.166061, -0.0555265, -0.164759, 0.161925, -0.041408, -0.153342, -0.0772168, -0.0089129, -0.0159589, 0.0182729, 0.0883339, -0.0356642, 0.0162972, 0.015054, -0.182827, -0.0748681, 0.0172582, -0.0372594, 0.0297368, -0.0685534, -0.130583, -0.136034, -0.154021, 0.0839529, 0.0387736, 0.0127284, -0.138168, 0.080157, 0.0268924, -0.0011804, -0.0659841, -0.0266299, 0.024009, 0.0280574, 0.0180538, 0.164799, 0.116656, 0.101415, -0.011939, 0.0977591, -0.0476908, -0.0768914, 0.0602767, -0.0053522, -0.151202, -0.184072, 0.0167717, -0.00406181, -0.0117795, -0.110477, -0.147028, -0.29265, -0.126697, -0.0387359, 0.0960825, 0.0711516, -0.135702, -0.142866, -0.167412, 0.108697, 0.0091396, -0.0967335, 0.203302, 0.0673702, 0.0267909, 0.176569, 0.0406655, 0.0225188, 0.163324, -0.0470643, 0.197735, 0.044814, -0.142154, -0.0282205, 0.13533, -0.0283752, -0.0300357, 0.017307, -0.0806416, -0.139564, -0.000491513, -0.103581, -0.315819, 0.0283057, -0.0589041, -0.0356165, 0.0277596, -0.0872037, 0.110222, 0.0364754, 0.0414777, 0.0538696, 0.190049, 0.449245, 0.236093, 0.09641, 0.0997515, -0.0290908, -0.103398, 0.0646363, 0.17311, -0.00515113, 0.132384, 0.0752263, 0.124743, 0.0914807, 0.110636, 0.0812937, 0.0653009, -0.078652, -0.0969307, -0.0896881, -0.154218, -0.0405315, 0.106238, -0.0934315, -0.0871979, -0.30495, -0.0923012, -0.163265, 0.130439, -0.0384578, 0.04857, -0.130185, 0.153442, -0.245615, 0.0117954, 0.00962987, -0.0120205, -0.0297564, -0.216108, -0.179924, -0.0274969, 0.0167412, -0.135637, -0.0643604, -0.194404, -0.102237, 0.0484965, -0.0262733, 0.158812, -0.0114479, -0.155727, -0.0653976, -0.0394887, 0.0609423, 0.0195062, -0.0106337, -0.158169, -0.128954, -0.0903338, 0.0423705, 0.132558, 0.154514, -0.00064217, -0.0665158, -0.00512327, -0.0393318, 0.0239191, -0.259439, -0.150801, 0.0711237, -0.0338657, -0.0982747, -0.206586, -0.428117, -0.462974, -0.109732, -0.0425407, -0.0333535, -0.178417, -0.46206, -0.0847117, 0.0738521, -0.0400471, -0.116821, 0.0236722, -0.112914, 0.285131, 0.211796, 0.0663423, -0.0567247, -0.03165, 0.215403, 0.180718, -0.00851699, 0.028127, -0.0282388, 0.0446581, -0.193439, -0.0999745, 0.027089, -0.2322, -0.011925, -0.166226, -0.406319, -0.264606, -0.155467, -0.0378457, -0.00865464, -0.308499, -0.505105, -0.250637, -0.144167, -0.0295799, -0.0428442, 0.20311, -0.222059, 0.481995, 0.350586, -0.0172971, -0.089235, 0.0116867, 0.147424, 0.0228299, -0.0981065, 0.0654449, -0.00809293, 0.150469, -0.000117662, 0.0101274, 0.0680844, -0.0475198, -0.0247804, 0.0867544, 0.0217324, -0.129283, -0.251738, 0.0114451, -0.103348, -0.345592, -0.156951, -0.0183855, -0.114234, -0.060651, -0.0605661, -0.0432392, -0.0630617, 0.478847, 0.258722, -0.0675451, 0.0143179, 0.0731262, -0.110369, 0.0247387, -0.135861, 0.103551, -0.0926338, -0.00572503, 0.206053, -0.0484966, -0.0949408, -0.068384, 0.0383519, 0.0716084, 0.107189, -0.10368, -0.0206928, -0.152208, -0.0101071, -0.289232, -0.134741, 0.180007, -0.154965, -0.174553, -0.0565117, -0.167114, -0.172686, 0.232998, -0.0446857, 0.0215995, -0.0363781, -0.0143993, -0.200754, 0.112044, 0.0898985, -0.127107, 0.0358008, -0.00690516, 0.179442, -0.0866999, -0.0295349, 0.084463, 0.0394468, -0.00448242, -0.0727882, -0.0145029, -0.0398218, 0.0986826, 0.0661423, -0.24466, -0.198493, 0.247439, 0.106065, -0.0307313, -0.0978371, -0.227959, -0.27912, 0.0513517, 0.0990504, -0.00588905, -0.0609445, -0.0590682, -0.0519795, 0.127066, 0.26436, 0.00622323, 0.132078, 0.0679622, 0.137424, -0.136637, 0.117662, 0.0974637, 0.0516351, -0.0902942, -0.135944, -0.0970173, 0.0535936, 0.0182711, -0.079681, -0.255079, -0.0993179, -0.0378523, 0.133719, 0.04331, -0.03189, -0.231081, 0.12086, 0.0716279, 0.1809, 0.0450823, 0.06171, -0.269352, 0.0679125, 0.0604325, 0.0449401, -0.00251537, 0.0682951, 0.0403073, -0.0116057, -0.155121, -0.0792852, 0.0505383, -0.0294565, -0.208088, -0.219292, -0.196426, -0.157087, -0.0676505, -0.0981141, -0.00426078, -0.0126964, -0.039995, 0.104037, 0.0271835, 0.0676176, -0.0605607, 0.133235, 0.124072, 0.186643, 0.0258768, 0.0367437, -0.170595, 0.19557, 0.233805, 0.115156, 0.185227, 0.0457204, 0.147711, -0.0812322, -0.1341, 0.051434, 0.00113014, -0.0758758, -0.244159, -0.404857, -0.404289, -0.102766, 0.0418329, -0.120378, -0.0848622, -0.476219, -0.199409, -0.0914909, 0.0548015, 0.0480259, 0.00785354, -0.34508, 0.243623, 0.134121, -0.0150873, -0.074378, -0.00797631, -0.0124665, 0.114058, 0.173621, 0.0764028, 0.0276104, 0.386193, 0.0449793, 0.190156, 0.101341, -0.15132, -0.0513486, 0.425087, 0.030333, -0.0508821, -0.274109, -0.197671, -0.118368, 0.352062, -0.130752, -0.0893889, -0.201067, -0.19843, -0.0462904, -0.0541256, -0.222689, -0.295932, -0.220896, 0.0200094, -0.0463219, -0.282178, -0.516, -0.0876827, -0.0244698, 0.00928435, 0.0479049, -0.142058, -0.0846658, -0.0251727, 0.169395, 0.0578912, -0.00247752, 0.0793975, -0.0537361, -0.0944648, -0.215544, 0.00741144, -0.046874, 0.502199, 0.160882, -0.0310563, -0.213361, -0.131511, -0.00258762, 0.479079, 0.236677, 0.0186675, -0.26822, -0.082015, -0.0146869, 0.354231, 0.136742, -0.095861, -0.234286, -0.151751, 0.00811213, 0.165307, 0.131066, 0.145198, -0.0285983, -0.0399675, 0.0859905, 0.233549, 0.0339896, 0.425635, -0.0159533, -0.0389969, -0.121377, 0.107035, 0.346292, 0.237216, -0.0133037, -0.0389252, 0.214564, -0.23005, 0.32935, 0.0195306, 0.0069462, 0.00111605, -0.0209997, -0.149455, 0.282563, -0.0113483, 0.0243554, 0.174177, -0.200479, 0.0741563, -0.251369, 0.00705183, -0.143041, 0.0720541, -0.134024, 0.214211, 0.0717919, 0.163378, -0.0390833, 0.0468198, -0.0451178, 0.0606374, 0.247331, 0.00869552, -0.191269, 0.364841, -0.0565798, -0.136195, -0.0773835, 0.173319, 0.00687698, 0.129659, -0.144208, -0.100032, 0.0627288, 0.00782923, -0.173427, 0.124408, -0.0409411, 0.0591944, -0.42457, -0.247753, -0.196489, -0.184682, -0.129508, -0.0435235, -0.409966, -0.372243, -0.327232, -0.0422575, -0.0958012, -0.12348, -0.368799, -0.437853, -0.175913, -0.11984, -0.137301, -0.200473, -0.272606, -0.343002, -0.134087, -0.0783006, -0.132153, -0.279865, -0.338071, 0.00526677, -0.0275646, -0.0342342, -0.0392923, 0.0994523, 0.0256884, -0.010258, -0.0139091, -0.125275, -0.111573, -0.0439241, 0.0197406, -0.125538, -0.127936, -0.0225599, -0.0908449, 0.0329508, 0.116304, -0.0935522, -0.0701794, 0.000807385, -0.00808917, 0.0302617, 0.0162004, -0.0109189, 0.0708065, 0.110284, -0.0801301, 0.0245512, -0.155658, -0.050037, 0.0956014, -0.0505804, 0.130297, -0.0794868, -0.0317375, 0.108069, 0.157976, 0.0544715, -0.137156, 0.0466852, 0.0763386, -0.0635242, 0.0552939, -0.118488, -0.0380799, 0.0403459, -0.0938015, -0.0492142, 0.0466514, -0.137878, 0.0309529, 0.06426, -0.069026, 0.203027, 0.126158, 0.0136969, -0.0960712, -0.147068, -0.143807, -0.126369, 0.0588587, 0.0979796, -0.0690338, 0.0728542, -0.011109, -0.232813, 0.0438864, -0.0941781, 0.0504609, -0.0919237, -0.175288, -0.310175, -0.2741, -0.175555, 0.0530646, -0.104088, -0.234863, -0.145342, 0.00196922, 0.0231434, 0.1012, 0.0268935, -0.0464808, -0.129847, -0.0287924, -0.04649, -0.032354, -0.0603385, -0.0043972, 0.129264, 0.0933731, -0.0927271, -0.0842742, 0.257854, 0.0518595, -0.0071373, -0.0549206, 0.00917461, -0.107029, -0.0599922, -0.206666, -0.205229, -0.240803, -0.0970889, 0.0385297, -0.0726552, -0.0540264, -0.134821, -0.188258, 0.00845278, 0.1091, -0.00478065, -0.121347, 0.0125561, 0.00506915, 0.0825626, -0.154439, 0.0673976, -0.0280684, 0.0556622, -0.0292477, -0.0174466, -0.00816185, 0.204667, -0.210261, 0.233428, 0.300155, -0.0234792, -0.0344946, 0.112976, -0.276763, -0.129176, -0.0357717, -0.0444778, 0.045676, -0.00588488, -0.180912, -0.214081, -0.107905, -0.135799, -0.0465225, 0.114098, -0.0369801, -0.123099, 0.0963391, -0.023283, 0.0945974, -0.0661836, 0.223063, -0.112988, -0.0363679, 0.154572, 0.127025, -0.0404354, -0.251189, 0.220399, 0.363388, -0.118443, -0.02652, -0.111847, -0.19189, 0.070847, 0.103698, -0.0809788, 0.00803937, -0.153003, -0.226608, -0.0162697, -0.0576685, 0.0240308, -0.0123008, -0.105768, 0.135703, -0.131375, 0.0857682, 0.0749976, 0.115078, -0.126715, -0.122568, -0.0705808, -0.00689944, 0.0362066, 0.091176, -0.228788, -0.0745154, 0.283023, 0.37492, -0.138362, 0.0348641, -0.0549045, -0.212903, 0.162837, 0.135795, -0.150551, -0.0310846, 0.0451773, 0.136116, -0.027021, 0.0329234, 0.0371695, 0.11744, -0.0482049, 0.112286, 0.152302, 0.165906, 0.0155358, -0.0314028, -0.0485058, -0.106646, 0.194049, 0.412057, -0.0654573, -0.109911, 0.073721, 0.169072, 0.102154, -0.0133746, 0.106252, -0.0313786, 0.104947, 0.155585, 0.0330777, -0.0800967, 0.193029, -0.0969752, 0.0937931, -0.0654328, 0.0144897, -0.0101471, -0.155638, -0.109537, 0.0951656, -0.0401426, -0.0935356, -0.0392089, -0.0614823, 0.0836606, -0.0992902, -0.0440375, -0.0338872, -0.324467, -0.0245718, 0.0905866, 0.0817059, 0.194158, -0.0159601, -0.0260366, 0.171827, -0.097818, -0.0674536, 0.0234964, -0.186128, -0.0336673, 0.0630289, -0.106794, -0.0435733, -0.334511, -0.241596, -0.17116, -0.122536, 0.125474, 0.0379307, 0.000503271, 0.123915, -0.177257, -0.0864459, 0.113925, -0.215673, -0.117778, 0.058896, 0.0528691, 0.129511, -0.0488737, 0.0318293, -0.157896, -0.233319, -0.17176, -0.0847427, -0.1355, -0.159407, -0.0163794, -0.361587, -0.108217, -0.085896, 0.0996055, -0.256831, -0.0933875, -0.102289, -0.172839, 0.0517896, 0.137845, -0.106804, -0.155017, 0.0136517, 0.254236, 0.120949, 0.0189509, -0.23062, -0.25145, 0.000271939, 0.209795, -0.127004, 0.11916, -0.0854306, 0.196671, -0.130269, -0.119465, 0.0650863, -0.0340742, -0.158623, 0.167568, -0.284795, -0.128169, 0.0213889, 0.0907211, -0.284574, -0.280556, -0.0874986, -0.0735057, -0.0399964, 0.11287, -0.110821, -0.116958, 0.278434, 0.335974, -0.142193, -0.0716008, 0.0349001, -0.0364359, 0.015263, 0.190114, -0.0508647, 0.00590039, -0.0684432, 0.0118346, -0.135643, -0.146064, 0.0620892, 0.0362481, -0.0336645, -0.133116, 0.154459, 0.0236823, -0.165743, 0.12273, -0.186367, -0.0937548, 0.490203, 0.166875, -0.115877, -0.00191617, -0.0167965, 0.0859893, 0.28271, 0.259827, 0.111812, 0.0210051, 0.173928, -0.0664094, -0.0577129, 0.101876, 0.0347576, 0.00276078, -0.0877655, -0.016294, 0.0282846, -0.0269625, 0.0145751, -0.00777655, -0.110109, -0.0550259, -0.0683207, 0.0693561, -0.0669967, -0.109789, -0.0799778, 0.129335, -0.185263, -0.00243823, -0.0644056, 0.097882, 0.0288916, 0.160967, -0.277066, -0.0885951, -0.0475908, 0.0629425, 0.337857, 0.114356, 0.0421439, -0.0527, 0.050631, -0.0228922, -0.0548035, 0.110859, 0.000389052, 0.00140558, 0.0110527, -0.0523879, 0.012091, -0.140782, -0.171347, -0.0480742, -0.0588944, 0.0751908, -0.102574, 0.0241443, -0.215788, -0.024419, 0.0339242, 0.12708, -0.110559, 0.0802759, -0.056762, 0.0140844, 0.118808, 0.0629805, 0.240755, 0.0414579, 0.160683, 0.265883, -0.10398, -0.0939457, -0.0289514, 0.00973472, 0.00612685, 0.0836744, 0.066136, 0.0313699, 0.030291, -0.231298, -0.179313, -0.0484948, -0.0350409, -0.0814831, 0.135964, -0.164505, -0.174925, -0.0988286, -0.0258563, -0.00751494, -0.00918923, -0.15372, 0.0660176, 0.031707, -0.0539076, -0.0397961, -0.142064, -0.52523, 0.0387343, 0.210043, -0.0413792, -0.0342747, 0.085811, 0.0135556, 0.0784844, -0.00429324, -0.0450226, 0.0704173, -0.0131652, -0.125879, -0.105555, -0.0311247, 0.035991, -0.0259778, -0.0939099, -0.263359, -0.166329, -0.0288025, -0.0801916, -0.0506509, 0.0911779, 0.0447874, -0.308662, -0.172381, -0.107279, -0.14086, -0.0094757, 0.221531, -0.219117, -0.132553, 0.00547235, -0.0024954, 0.0522007, -0.0707737, -0.094876, -0.09773, -0.0138718, -0.0975637, -0.018958, -0.0453228, -0.157889, -0.204402, 0.0178392, -0.0203115, 0.0514647, 0.415592, -0.212631, -0.119564, -0.114569, 0.290307, -0.0793168, 0.730618, -0.277727, -0.31457, 0.221339, 0.278312, -0.198835, 0.426352, -0.25431, -0.449586, 0.437535, 0.0795343, -0.0313603, 0.313704, 0.152982, 0.0636066, 0.0107533, -0.0521542, -0.0462613, 0.176432, -0.167985, 0.0634537, 0.0128133, -0.0412416, -0.177382, -0.0803388, -0.17969, 0.140671, -0.0634208, 0.00277362, -0.137032, -0.268095, -0.242915, -0.0868352, 0.0706906, -0.00872728, -0.258024, -0.230112, -0.128937, -0.0522167, -0.0518819, -0.123495, 0.282889, 0.42382, 0.458944, -0.0977151, 0.141233, -0.112636, 0.234355, 0.15053, 0.0456176, 0.0470024, -0.0356051, -0.0716645, -0.0928437, 0.0551752, -0.159462, 0.00689005, 0.0438339, 0.0673557, -0.0304248, -0.119595, -0.233563, 0.020558, -0.0603575, -0.00111203, -0.0581016, -0.146673, -0.143817, -0.0655948, -0.157182, -0.0644599, 0.144709, -0.104078, -0.149842, -0.462969, 0.103347, -0.0350103, 0.141493, -0.343621, 0.0731956, 0.0173952, -0.0893703, -0.114116, 0.147221, 0.0185557, 0.0767872, 0.183721, -0.0243021, -0.0695584, 0.0438277, -0.0538544, -0.029896, -0.0611313, -0.0187549, -0.0446902, -0.128945, -0.0607361, -0.0156319, -0.0729764, -0.0108274, 0.0855569, -0.0838185, -0.065262, -0.220283, -0.111771, -0.0973098, -0.0829291, -0.126193, -0.274017, -0.12248, -0.155104, -0.0729624, -0.0307702, 0.160293, -0.0721689, 0.170258, -0.00235627, -0.095722, -0.112951, 0.0848811, -0.0862921, 0.153068, -0.00904645, -0.0502173, -0.0689067, 0.0665752, -0.0815059, 0.159613, -0.0303184, -0.0275028, -0.0154294, -0.0488061, 0.261515, -0.349492, 0.176672, 0.159239, 0.11964, -0.20171, -0.0983768, -0.403965, -0.16965, -0.0647613, 0.0387236, -0.178438, -0.149111, -0.0505472, 0.0157937, -0.061699, 0.0364052, -0.0522368, -0.0983186, 0.0975144, 0.104653, -0.046305, 0.0572117, 0.0401804, -0.0978795, 0.151431, 0.220437, 0.00853404, 0.107254, -0.0675059, -0.186564, 0.291047, 0.068743, 0.0997321, 0.01159, -0.0985679, -0.0523444, -0.184283, -0.124704, -0.00640002, 0.0249285, -0.0675311, 0.0224088, -0.24887, -0.218574, -0.0184012, -0.0748282, -0.0702014, 0.0498119, -0.00622819, -0.0328797, -0.138675, 0.107577, -0.0244581, 0.0332015, -0.00908742, -0.00790948, -0.0506187, -0.119819, -0.103882, -0.108866, -0.0994951, -0.0504692, -0.0523032, -0.0251126, 0.0842033, 0.185648, -0.0929179, 0.0436234, -0.0760114, -0.0107445, -0.0885078, 0.0886492, -0.139521, -0.269553, 0.107016, -0.0437948, -0.12686, 0.0301974, -0.176142, -0.113205, 0.033565, 0.0457005, -0.189235, -0.10957, -0.0982121, 0.0129622, 0.0550545, 0.0285617, -0.158901, -0.211225, -0.111486, -0.0621305, 0.0121498, 0.0715163, 0.188889, -0.0279953, 0.0896232, 0.0542995, -0.160557, 0.0891939, 0.219199, 0.0479518, -0.0569494, -0.129805, 0.0379763, 0.0237844, -0.154149, -0.0124049, -0.460262, -0.269186, 0.0712727, -0.0413576, -0.1542, 0.0718027, -0.167404, 0.0249509, -0.0808295, -0.0555579, -0.274053, -0.274842, -0.221554, -0.0345307, -0.0175771, -0.125184, -0.162542, -0.280275, 0.106115, 0.0357451, -0.113954, 0.0908071, 0.336894, 0.0535456, 0.469049, 0.268251, -0.062202, 0.0802539, 0.09798, 0.0677305, 0.0737977, 0.0547825, 0.0239712, 0.0856728, -0.0151915, 0.0614031, -0.259749, 0.0179576, -0.0902748, 0.106262, -0.0616722, -0.141727, -0.182961, -0.124226, 0.0557475, 0.0239127, -0.340986, -0.145902, 0.0215666, 0.115397, -0.0385146, -0.0201589, -0.0238952, -0.1142, 0.627001, 0.277115, -0.0744869, 0.0337929, 0.306089, -0.00352311, 0.35359, 0.21331, 0.0768078, 0.0165272, 0.0358366, -0.106871, -0.135147, 0.144299, 0.0297748]
        }, 
        {
          "_type": "BiasLayer<float>",
          "_version": "0",
          "inputPaddingScheme": 0,
          "inputPaddingSize": 0,
          "outputShape": [12, 12, 16],
          "outputPaddingScheme": 0,
          "outputPaddingSize": 0,
          "bias": [-0.134152, -0.247838, -0.107225, -0.039282, -0.299851, -0.13485, -0.386183, -0.359289, -0.128818, -0.183608, -0.137897, -0.257501, -0.253278, -0.497246, -0.0828609, -0.130612]
        }, 
        {
          "_type": "ActivationLayer<float,ReLUActivation>",
          "_version": "0",
          "inputPaddingScheme": 0,
          "inputPaddingSize": 0,
          "outputShape": [12, 12, 16],
          "outputPaddingScheme": 4,
          "outputPaddingSize": 0
        }, 
        {
          "_type": "PoolingLayer<float,MaxPoolingFunction>",
          "_version": "0",
          "inputPaddingScheme": 4,
          "inputPaddingSize": 0,
          "outputShape": [6, 6, 16],
          "outputPaddingScheme": 0,
          "outputPaddingSize": 0,
          "poolingSize": 2,
          "stride": 2
        }, 
        {
          "_type": "FullyConnectedLayer<float>",
          "_version": "0",
          "inputPaddingScheme": 0,
          "inputPaddingSize": 0,
          "outputShape": [1, 1, 84],
          "outputPaddingScheme": 0,
          "outputPaddingSize": 0,
          "weights_rows": 84,
          "weights_columns": 576,
          "weights_values": [-0.114076, -0.00714642, -0.0429368, -0.0139123, 0.0275577, 0.0861656, 0.0243949, 0.0480827, 0.0553875, -0.0436824, 0.0234571, 0.038224, -0.000119935, -0.00438225, 0.0515955, -0.0959327, 0.0164129, 0.00708104, -0.0713041, 0.00382064, -0.0476109, -0.0855933, 0.0236217, -0.0892859, 0.0746446, -0.0441735, -0.0228012, 0.0132999, -0.0353123, 0.0950143, 0.0478501, -0.0312023, -0.0147838, -0.0350508, -0.0595482, 0.0123393, 0.00994824, -0.061512, -0.08465, -0.0140242, -0.0285707, -0.0451696, -0.0450302, -0.0303303, -0.00498488, -0.0293729, -0.0848321, -0.0770101, -0.0472217, 0.00228924, -0.042792, 0.0143008, -0.104009, 0.0663734, 0.0320837, -0.00582349, -0.0549072, -0.0241208, -0.0751054, -0.0164278, -0.0212573, -0.108271, -0.035119, 0.0314598, -0.00157284, -0.0400762, 0.0237751, 0.0195557, 0.0965715, 0.0247679, 0.0678538, 0.0707006, -0.0437261, 0.00230465, 0.0133056, -0.100131, 0.0145856, 0.0183292, -0.0374226, -0.136924, -0.0182809, -0.0406245, -0.0336281, 0.0484661, 0.0357181, 0.0502528, -0.040179, -0.024988, 0.0829204, -0.0956899, -0.0244638, -7.73383e-05, -0.034636, -0.0333314, -0.00214036, -0.0275016, -0.0630302, 0.0416867, 0.0676369, 0.0597497, 0.042447, -0.0222186, -0.084002, -0.0436083, 0.0301535, -0.0435245, -0.122081, 0.110948, 0.0615464, -0.0158707, -0.0884402, -0.0418616, -0.0774783, -0.0298631, 0.0408827, 0.0561219, -0.00404333, 0.00895737, 0.120927, 0.103566, 0.0789791, -0.102082, -0.0426171, -0.0390056, -0.00423895, -0.12161, 0.0412245, 0.0543351, -0.152811, -0.0457258, -0.0585, -0.0779739, 0.0198002, 0.0427266, 0.0440169, -0.0602586, 0.0406291, 0.032657, 0.0405366, 0.0193324, 0.0128069, 0.117966, -0.0948709, -0.134862, -0.0501358, 0.0177005, -0.0916063, -0.000281893, 0.0102088, 0.0823264, -0.0380866, 0.0491963, -0.0381202, 0.112233, -0.0753686, -0.0446335, -0.0115751, 0.0129093, -0.0655616, 0.00593017, -0.117597, -0.103276, -0.00962146, -0.0685923, -0.113455, -0.0293786, 0.0558001, -0.0210707, -0.0893754, -0.0352532, 0.0377824, -0.117585, -0.0788166, 0.00276074, 0.0569817, -0.0421759, -0.121089, -0.00953875, 0.086938, -0.0308761, -0.0615153, -0.0198013, -0.0336133, 0.0692446, -0.0714578, 0.0164325, 0.056229, -0.0261839, -0.0219976, -0.0474327, 0.01544, -0.0586197, 0.00359215, -0.03405, 0.0280978, -0.0920892, -0.0750679, 0.0981538, -0.12625, -0.00787589, 0.0254799, 0.123838, -0.000452704, 0.0599779, -0.0731153, -0.0359385, 0.0784873, 0.0436787, -0.0707454, 0.238215, 0.0148011, -0.0761083, -0.0777426, -0.0950476, 0.0475493, 0.0525804, 0.0794375, 0.0948123, -0.014602, 0.0583058, -0.0232769, -0.148183, 0.0626532, -0.0206939, -0.0390497, 0.0615486, 0.0580757, -0.133614, 0.0533103, -0.0473102, 0.136674, 0.0385222, 0.0378548, -0.0812856, 0.0149573, -0.118007, -0.0300706, -0.0600394, -0.0532094, 0.057109, -0.0226189, -0.092414, 0.0809045, 0.0147071, -0.0990362, 0.0653774, -0.0790517, -0.0170263, -0.100749, -0.0608302, 0.0445089, 0.000758709, -0.0798765, 0.0421588, -0.0670447, -0.0580963, -0.113649, 6.8687e-05, 0.0293827, 0.0468215, 0.0227235, 0.0680882, -0.0470023, 0.0683103, -0.0438444, 0.0583953, 0.00558569, 0.029055, 0.0487383, -0.0899219, 0.0788363, 0.101281, -0.0381218, 0.0622283, -0.0524021, 0.00830038, 0.0109062, 1.71898e-05, 0.0211931, -0.0797, -0.0652401, 0.0208301, 0.0309443, 0.0815666, 0.0492189, 0.0589435, 0.111677, 0.0498681, -0.104915, 0.0592712, 0.0699672, 0.0616448, -0.0150632, -0.0098524, 0.0729096, 0.0716345, 0.0248819, 0.0356814, -0.0773742, -0.0838423, 0.0729101, -0.0468189, 0.0356626, 0.0287123, -0.136127, 0.114513, -0.108857, -0.0543248, 0.0427276, -0.0593886, 0.031946, -0.0147386, 0.024822, 0.0150987, 0.155219, -0.0430516, -0.117822, -0.027407, -0.0876589, -0.0422118, -0.0179835, -0.0512394, 0.0796637, -0.105002, 0.047633, -0.0568965, 0.123395, -0.00537896, -0.025275, 0.0951861, 0.207945, 0.0614767, 0.0144023, -0.0681317, 0.0967863, -0.0124786, -0.083615, 0.0165517, 0.0706393, 0.036278, -0.00709993, -0.00879259, -0.0638243, 0.0674685, 0.0441626, -0.039548, -0.0509517, -0.0665843, 0.0422338, 0.0129032, -0.092969, 0.0638024, 0.0490105, 0.0430696, -0.0194553, 0.0294138, 0.000632749, -0.0478372, -0.00186492, -0.0521245, 0.0185563, 0.0313773, -0.125476, 0.0976783, 0.0937949, 0.00582293, 0.0145781, 0.00641827, 0.0273412, -0.0219591, -0.06262, 0.110465, 0.0370898, 0.0291039, 0.0727795, -0.0984602, 0.0367482, 0.0237499, 0.0618797, -0.119343, -0.0981214, 0.0348485, -0.135832, -0.0182442, -0.0121248, -0.0174695, -0.0121579, -0.082845, 0.0215415, -0.0812925, 0.0863358, -0.102245, 0.0326957, -0.0790568, -0.0899877, 0.0611576, 0.0240547, 0.0468972, 0.0540645, -0.0651651, 0.0101162, 0.03354, 0.0316322, -0.092184, -0.0971834, 0.0235178, 0.021282, -0.0441392, -0.174467, -0.0533862, -0.126936, 0.00524135, 0.00741964, 0.0735586, -0.0128229, 0.0643371, -0.056745, -0.017942, -0.0846826, 0.113901, -0.015158, -0.0798593, -0.039855, 0.0341887, -0.1384, -0.00841999, -0.0352486, -0.0398883, -0.058297, -0.0374536, -0.104878, -0.035069, 0.063156, -0.157376, -0.0154242, 0.0904836, 0.0814816, 0.0166725, 0.0735037, 0.067746, 0.0311997, -0.0223525, -0.0197314, -0.106611, 0.0338028, 0.0324894, -0.0340652, 0.0484261, 0.00374389, -0.0510515, 0.0888931, -0.0412421, 0.101801, 0.0546696, 0.00725845, -0.0684575, 0.034174, -0.0364245, -0.0299084, 0.0907456, -0.0363346, -0.0613032, -0.0446725, -0.0671006, -0.0125197, 0.04669, 0.0833578, -0.0289076, 0.05119, -0.0295535, -0.0857449, 0.0891456, -0.037039, -0.0194636, -0.108471, 0.0521444, 0.0444136, -0.0582517, 0.016696, 0.0651081, 0.0387314, -0.0992681, -0.003327, 0.0538231, 0.0426289, -0.0190089, -0.0678251, -0.0323094, -0.0389806, 0.0198825, -0.0193213, -0.00668499, -0.0316002, 0.0495929, 0.066461, 0.053703, 0.0399928, 0.0651366, -0.0870503, 0.000671925, 0.0729549, -0.0510112, 0.0127454, 0.0255657, -0.0724743, -0.0439381, -0.00286405, -0.0179852, 0.0842439, 0.0375922, 0.0285058, -0.0497327, -0.0381898, 0.0328536, -0.0657151, 0.0835162, -0.107846, -0.050444, -0.0114289, 0.0532518, -0.006681, 0.0140081, -0.0252142, 0.0199862, -0.0830961, 0.0348147, -0.0691645, -0.00290472, -0.0472269, 0.0678474, -0.0363844, 0.065901, -0.0883667, 0.0658597, -0.0367161, -0.0360154, 0.0817362, -0.0215007, 0.0230389, 0.0874135, 0.0435416, 0.0316946, 0.0457747, -0.0345755, -0.08596, -0.0692009, -0.0889613, 0.0231463, -0.0663619, 0.0376386, 0.0813286, 0.00525994, 0.0848298, 0.0790044, -0.0115928, -0.0640618, -0.0283281, 0.06244, 0.0883667, 0.0253972, -0.0445162, -0.00930846, 0.091312, -0.0123268, 0.00456809, -0.00890967, -0.0796397, 0.0171447, -0.0704411, 0.0565487, 0.0300688, 0.0463562, -0.0910103, -0.0544772, -0.045266, -0.0161546, -0.00758789, -0.0256397, 0.0722821, -0.0500816, 0.0260258, -0.0173228, -0.0552986, -0.0646254, 0.0336234, 0.109323, -0.0755867, -0.0237917, 0.0013182, 0.114026, -0.088676, -0.00948968, 0.220478, -0.0259018, 0.026431, -0.0760831, -0.0820329, 0.0814637, 0.009926, 0.0396833, 0.0383278, 0.144839, 0.008785, 0.0672833, 0.0858298, 0.0995262, -0.0803408, 0.0470931, 0.104189, -0.0711151, 0.113752, 0.00827416, -0.0544547, 0.0954726, 0.00388499, 0.0301466, -0.0712127, 0.0778553, 0.0280107, 0.0600892, -0.0442235, -0.0790958, 0.0922243, 0.0594295, 7.59342e-05, -0.0298966, -0.0329758, -0.0274698, -0.0315396, -0.0545283, 0.0624186, -0.0245291, 0.0371995, -0.00140877, -0.00239993, -0.0856276, -0.0348356, 0.0790881, 0.0835363, 0.134883, 0.140365, 0.107196, -0.133143, 0.0736308, 0.0378747, 0.0718826, 0.0102927, 0.00602767, -0.0912313, -0.0775388, -0.0404613, 0.0648995, 0.032016, 0.203322, 0.0639818, -0.101724, 0.0385552, 0.00820559, -0.0474995, -0.00340808, -0.0826964, 0.0482157, 0.0751231, -0.000107991, -0.000285058, 0.0172571, -0.0451334, -0.0025721, -0.0878773, 0.110752, 0.0993692, 0.0351054, 0.108883, 0.025658, 0.101416, -0.103939, 0.0458473, -0.0249844, 0.0652583, -0.0764169, 0.0307412, 0.0791513, 0.019613, -0.0140297, 0.0569698, -0.141782, 0.0616462, -0.0712744, 0.113135, 0.0836698, 0.0577397, -0.0720384, -0.186873, -0.0844213, -0.0182081, 0.0303911, 0.129093, 0.0914287, 0.123881, -0.0060124, 0.0180718, 0.146262, 0.136098, 0.105498, 0.169353, 0.0582281, 0.0776054, 0.161571, 0.0375488, -0.00278095, 0.120725, 0.0887698, 0.0791436, 0.164715, 0.161561, -0.0306393, -0.149219, 0.03625, 0.111106, 0.037149, 0.0855287, 0.0731719, 0.11872, 0.0275898, -0.0169688, 0.101335, 0.00922798, 0.0676891, -0.00316072, 0.144539, 0.255816, 0.12815, -0.127129, 0.120412, 0.10081, 0.112547, -0.0391906, 0.0816072, 0.00677186, -0.00301345, -0.00608431, -0.104827, 0.13999, -0.0571914, -0.00834367, -0.0465818, 0.125852, 0.0145414, 0.0424422, -0.0504607, 0.0193778, 0.0784057, 0.132579, 0.0726993, -0.0112213, 0.191352, 0.0981534, 0.0461421, -0.0890114, -0.0669593, 0.034846, 0.0225099, 0.0101231, -0.02254, 0.0499251, -0.039864, -0.0796354, -0.0488137, 0.0590636, 0.0787639, -0.0262486, 0.0124885, -0.204523, -0.0347323, 0.282909, -0.0323129, 0.0454142, 0.0653949, -0.0345025, -0.118789, -0.124668, 0.329825, 0.0426602, 0.0360723, 0.0570458, -0.040285, 0.00570498, 0.0462247, -0.15385, -0.0576409, -0.131355, -0.0874689, -0.0622291, 0.120905, 0.0165813, 0.0969236, -0.0914955, 0.156133, 0.00342338, -0.071404, 0.214131, -0.0974688, 0.0732707, 0.0996862, 0.00886737, 0.0191932, -0.2739, 0.0457687, 0.047285, 0.0464375, 0.0836711, 0.0103589, -0.128013, 0.0733841, 0.121018, -0.124166, 0.124835, 0.0731711, -0.0451358, 0.0304144, 0.0407959, -0.08899, 0.091055, 0.0214114, 0.20488, 0.0575909, 0.0275186, -0.0301072, 0.134348, 0.0419492, -0.0787117, 0.0257111, 0.121088, -0.0760368, -0.0166592, 0.162713, 0.120452, 0.0278502, 0.153142, 0.0344563, 0.120609, 0.135786, 0.117298, 0.0518872, 0.125644, 0.0314752, -0.0703533, -0.0454879, 0.10196, 0.0108851, -0.0196899, 0.056907, 0.0487423, -0.0513059, 0.0835315, -0.00897711, 0.0859734, -0.0894452, 0.0491047, -0.0697482, -0.0604799, 0.128979, -0.106001, 0.0134054, -0.131196, -0.0729029, -0.0311938, 0.104523, 0.0199091, 0.0456018, -0.00214924, -0.0807111, -0.00993145, -0.0211816, 0.0350699, 0.024246, 0.0116967, 0.0934253, -0.0316509, -0.0340462, -0.0886445, -0.151913, 0.0305713, -0.0153709, 0.0907225, 0.0446239, -0.121668, -0.0106892, -0.0365229, -0.129227, -0.104789, 0.119789, 0.0645942, 0.000360231, 0.010621, -0.174636, 0.0753698, -0.129813, -0.00425628, 0.15625, 0.0552508, -0.137729, -0.184259, 0.02274, -0.0208423, -0.222112, -0.385691, -0.0305338, 0.11079, -0.118714, -0.0942749, -0.0544972, 0.0436176, -0.00237228, -0.0491965, -0.026671, 0.111078, 0.0369339, 0.0283261, 0.0992254, 0.123839, -0.0802585, -0.134164, -0.0153889, -0.0396177, 0.0596777, -0.0940336, -0.0587545, 0.100476, 0.0970456, -0.00939189, -0.151528, -0.0942475, -0.00512766, 0.204831, -0.0475407, -0.0488804, -0.0472571, 0.06447, 0.00316838, 0.0488683, 0.125005, 0.0286522, 0.044762, -0.136848, -0.0382623, 0.138926, 0.056891, -0.0260929, 0.0244205, 0.0560188, -0.051453, -0.0657638, -0.0127978, 0.159236, -0.0107334, -0.0135279, 0.070949, 0.185945, -0.137895, -0.0456592, -0.0424938, 0.0698823, -0.0372563, 0.0953075, -0.0142141, -0.0692609, 0.0497771, -0.106409, 0.00237303, -0.109311, 0.0382214, -0.077633, -0.0773697, -0.00518625, 0.0264272, -0.140315, -0.0989437, 0.0204624, -0.0261203, 0.112252, -0.032709, -0.164509, -0.0335429, 0.00323109, -0.0567799, -0.0431388, -0.051892, -0.0391352, -0.161149, 0.057175, 0.0690456, -0.0139949, -0.0929514, 0.0581644, -0.0382853, -0.00901782, -0.0781732, -0.00620509, -0.103734, -0.0964577, -0.144573, -0.228184, 0.0265428, 0.12588, -0.108005, -0.0746211, 0.0131271, 0.0698893, 0.0496037, 0.00139649, 0.0556888, 0.16465, -0.111775, 0.0486311, 0.0916538, -0.0775298, -0.0607887, -0.0574387, 0.108532, -0.0740603, -0.106296, -0.0911806, 0.00608395, -0.129451, -0.0697403, -0.0146868, -0.0541971, -0.0717912, -0.0908563, 0.179629, -0.0641368, -0.0802814, -0.00738653, 0.0477551, -0.010457, -0.0321485, -0.0442625, 0.0662284, 0.0137938, -0.126331, 0.017465, 0.0849614, 0.0483511, -0.132829, 0.111609, 0.0485756, 0.0409208, 0.0703321, 0.000547123, 0.0518266, 0.00218285, 0.0599655, -0.0109429, -0.0382599, -0.100076, -0.0185905, 2.77758e-06, 0.00245576, 0.0660741, -0.0459401, 0.0471811, -0.12885, -0.0305595, -0.0414937, -0.0602078, 0.0386312, -0.0556102, -0.0641011, -0.0131778, 0.0706643, 0.0691086, -0.0740808, -0.117005, -0.0229241, 0.0782592, 0.0434025, 0.199023, -0.0420934, -0.0514905, 0.0293611, 0.141725, -0.104848, 0.045846, -0.0149035, 0.0620488, 0.000516038, -0.0652819, 0.0739215, 0.129361, -0.0393396, -0.0525548, 0.0831299, 0.118799, -0.0547743, -0.0269602, 0.0265878, 0.184054, 0.0314184, 0.00248474, -0.0240699, 0.016588, -0.0487165, 0.0543969, 0.111795, -0.033634, -0.0595147, -0.0382261, 0.0496388, 0.070014, 0.0160082, 0.016897, 0.132693, 0.0430895, -0.140379, -0.0466207, -0.0249552, 0.0481023, -0.0474654, 0.0701133, 0.0278301, -0.00561956, 0.0290659, -0.10344, 0.0520731, -0.094052, 0.0854513, -0.0296879, -0.0524744, -0.00714495, 0.0621898, -0.00458757, 0.0687799, 0.0562642, -0.0699629, 0.0269994, 0.0120723, 0.00621824, -0.092367, 0.0841694, -0.0696821, 0.0346848, 0.0833349, 0.0103737, -0.0743151, 0.0388778, 0.0767316, -0.0346817, -0.013387, -0.00332572, 0.0403984, -0.020371, -0.0331113, 0.0784526, -0.0912167, -0.0556191, -0.0281819, 0.0715733, -0.0842261, 0.0237694, 0.0773425, -0.0285484, -0.0950242, 0.090521, -0.0777497, 0.0251003, -0.0924153, -0.0329808, -0.0216399, -0.0511845, -0.00355591, -0.0214193, 0.073576, -0.000164155, -0.0168057, 0.091042, -0.0345819, 0.0173057, -0.0788772, 0.116137, -0.0278005, 0.0215651, 0.0876392, 0.00411173, -0.157608, 0.0403454, 0.0107023, 0.0753068, -0.0167201, 0.0143797, -0.0876043, -0.0616362, 0.0232079, -0.0502892, -0.0290101, 0.0695193, -0.044087, 0.0129671, -0.00742833, 0.0521476, -0.167076, 0.0362719, -0.0384581, 0.0512931, 0.0112648, 0.00574447, -0.031992, 0.0484818, 0.038723, -0.0847035, 0.0220059, 0.0197565, 0.0582611, 0.00206399, -0.00432886, 0.161363, -0.138793, 0.0166123, -0.119945, -0.0348625, -0.105972, -0.103382, -0.119006, 0.0178537, 0.0433363, -0.0338927, -0.00411222, 0.0598576, -0.0106597, 0.027613, -0.104638, -0.15338, 0.0316828, 0.0363768, -0.0571941, 0.0712047, -0.0325275, 0.0108198, 0.0243112, 0.0446838, 0.0479948, 0.0679598, -0.00155652, -0.00765581, 0.0236615, -0.0209435, 0.00113654, 0.043221, 0.0886369, -0.0350239, -0.0139049, 0.0215525, 0.0797581, 0.0927934, 0.101173, -0.0681682, 0.0274266, 0.0219482, 0.00161042, 0.106588, 0.0884972, -0.0429477, -0.0759401, -0.0364769, -0.0817457, 0.111534, -0.0459086, -0.00652522, 0.0565997, 0.0045288, -0.113509, -0.0519753, -0.0684649, 0.0131116, 0.0905755, 0.0328119, 0.128869, 0.0758038, -0.0800008, 0.0600199, -0.0388165, 0.0461468, 0.0657635, -0.0455858, 0.00425361, 0.0769351, -0.110406, -0.0611477, -0.0626186, -0.058934, -0.149574, -0.0765223, -0.0998325, 0.0846061, 0.0165759, 0.016683, 0.106494, -0.108175, -0.0361872, -0.144309, 0.127681, -0.0678736, -0.172169, 0.0603353, 0.0343777, -0.174727, -0.167756, 0.0357124, 0.0308673, 0.0361287, 0.0512121, 0.166771, -0.126854, 0.0609671, -0.0444588, 0.173013, -0.0314797, -0.0682288, 0.0534994, -0.0398392, 0.120229, 0.0525693, -0.163064, 0.0486718, 0.098961, -0.0201146, -0.155956, -0.206746, -0.0382992, -0.0857443, -0.0162166, 0.0575833, 0.00684925, -0.083792, -0.0379543, 0.069465, -0.0464067, 0.0153723, -0.136323, 0.00477976, 0.0169021, 0.0458496, 0.00167866, -0.0363155, 0.0278043, -0.0472943, -0.0096591, -0.0838108, -0.00726571, -0.077094, -0.131678, -0.0705888, -0.00216417, -0.0617102, -0.0668404, 0.0866503, -0.0727743, -0.0140543, -0.0338275, 0.0230158, -0.0196571, 0.122851, -0.0746584, -0.0146116, 0.0375718, -0.0974871, -0.115962, -0.0268457, 0.0110789, -0.0911961, 0.0561105, -0.00734542, 0.00869132, -0.0746167, -0.0936961, 0.0585991, -0.11354, 0.227443, 0.00241468, -0.0188507, -0.05826, 0.0513655, 0.047702, 0.0293325, 0.0947458, -0.0284412, -0.0114484, 0.077314, -0.139253, -0.0418183, 0.0771673, -0.0648655, 0.0131985, 0.149366, -0.0419257, -0.0829742, -0.0129449, -0.0467854, -0.09811, -0.00529828, 0.114269, -0.167029, 0.0112972, -0.0445579, 0.0151161, -0.0173017, 0.0282515, 0.0425899, 0.0777217, -0.124041, -0.0527469, -0.00891109, 0.0988818, 0.0185561, -0.101435, -0.102121, -0.111467, -0.00709565, -0.18968, 0.129756, -0.0693097, 0.0187764, -0.0223147, -0.0295718, 0.169281, 0.0775736, 0.0292621, -0.000598679, 0.000311629, -0.0577185, -0.0795154, 0.0748757, -0.0984275, -0.024236, -0.0546133, -0.151551, -0.00825758, -0.0298734, -0.0422494, -0.120046, -0.0736665, -0.0802006, 0.0243677, -0.0322947, -0.0119494, -0.0456409, 0.114304, -0.0361118, 0.0405973, -0.0624378, -0.0526674, -0.0285408, 0.0588353, -0.0893934, 0.0782424, 0.0848156, 0.0300898, 0.0527698, -0.000124757, 0.00983375, 0.100645, -0.148014, 0.114043, -0.0504818, 0.154199, -0.121112, -0.0429183, -0.0616682, 0.0180038, -0.0737968, 0.0648771, -0.00510601, -0.0556167, -0.0803277, -0.126222, 0.0745756, -0.0375457, 0.112624, -0.185393, -0.0168664, 0.0613192, 0.00740713, 0.155771, -0.0743144, 0.0648976, -0.0582332, 0.118661, 0.0386095, -0.0259451, 0.0435266, -0.0275871, 0.0769883, -0.00878331, -0.110169, -0.133992, 0.0606703, 0.200936, 0.0913152, 0.0296079, -0.0490276, 0.0510654, -0.0221416, 0.0486755, 0.0905889, 0.0917119, -0.100505, 0.0586615, -0.0715534, 0.0475621, 0.0645588, -0.0201399, -0.0429644, -0.120177, -0.0484164, -0.0445983, -0.112878, 0.00712563, -0.0857535, -0.123007, 0.106858, 0.0941971, -0.0228057, 0.12746, -0.000701863, 0.0122553, -0.0653879, 0.000991278, -0.0638825, -0.0790623, 0.0903081, 0.0516523, 0.100876, -0.0351218, 0.0252448, -0.111246, 0.0930501, 0.072351, 0.0728042, -0.0377048, 0.0497143, 0.0332599, 0.0182836, -0.142962, 0.0852432, -0.01292, 0.0279311, 0.0995033, 0.0767764, -0.0260149, -0.0433959, 0.0335039, -0.0438946, -0.110167, 0.0145334, 0.0782995, -0.0086576, 0.0517853, 0.0785863, -0.13949, -0.130362, 0.0616242, 0.0786935, 0.040426, 0.0443247, -0.0133896, -0.0276335, -0.0506331, 0.0795511, 0.0605532, -0.00967658, 0.052436, 0.08242, 0.0899398, 0.118271, -0.083768, -0.0350176, 0.0212416, 0.0436233, -0.124596, 0.0371903, -0.0159814, 0.132614, -0.00725161, 0.0231724, 0.204297, 0.00397635, 0.0694441, 0.105876, -0.0491479, 0.117212, 0.0854912, 0.0534171, -0.0398756, 0.0126216, -0.116047, -0.0276394, -0.053483, 0.090097, -0.0598101, -0.0827141, -0.0517365, -0.07816, -0.0399409, -0.0157487, 0.0643912, -0.0230385, 0.00710699, 0.0378215, 0.0590661, -0.0622098, -0.0289406, -0.00682081, 0.0480752, 0.0350512, 0.110805, 0.108389, -0.00900547, 0.0776535, 0.0497761, 0.108443, -0.094662, 0.044654, -0.0206629, -0.0497973, 0.0121962, 0.121896, 0.0604964, 0.037069, 0.0487212, 0.088327, 0.141774, -0.0185186, -0.0738339, 0.109221, 0.0638765, -0.049747, 0.0461843, -0.0147728, -0.0321242, 0.0127483, 0.055138, 0.0526099, 0.010347, 0.0620386, -0.0641656, -0.0697212, 0.0382529, 0.0107919, 0.0663382, -0.0880156, 0.000253242, -0.087344, -0.0657816, 0.069634, 0.110238, 0.0272331, 0.0749621, -0.0466027, -0.106616, -0.0233292, -0.0885206, 0.0563432, -0.0853431, 0.0547046, -0.0486639, 0.00298008, 0.0707288, -0.0276063, 0.0454862, 0.081036, 0.194572, 0.0132665, 0.0669849, 0.0961929, 0.0357389, -0.0123313, 0.0831493, 0.0778198, 0.0128603, 0.0483517, 0.0748077, -0.0628767, -0.00162939, 0.046644, -0.000812116, -0.0398596, 0.18055, -0.104514, -0.0678817, 0.0634039, 1.47117e-05, 0.0848942, -0.0461076, 0.0822416, -0.0586704, -0.0354995, -0.136484, -0.0379809, -0.0279473, 0.0143646, -0.0499458, -0.0329636, 0.070314, -0.0821549, 0.0329721, 0.0618467, 0.117265, -0.0381314, 0.0677028, -0.0176016, 0.149924, -0.0105574, -0.0231061, -0.0466465, 0.0683719, -0.0392833, 0.0326539, 0.0439947, -0.0409086, -0.0223716, 0.0845017, 0.0191227, 0.143301, -0.0374144, 0.0454664, -0.0355733, 0.139574, -0.0649243, -0.117787, 0.0151755, 0.0305268, -0.0308377, 0.0125237, -0.0143232, -0.0826414, 0.0600512, -0.0155956, -0.0244463, 0.0727537, 0.08435, 0.00835818, -0.188865, 0.0432557, -0.100036, -0.0923665, 0.00352146, -0.101738, 0.0367794, 0.0305673, -0.0398038, -0.0510124, -0.0964161, 0.044963, -0.00554049, 0.07449, 0.0533472, 0.106717, -0.215357, -0.0563968, -0.0379605, -0.0953205, 0.0289456, -0.136361, 0.133834, -0.00890231, 0.17545, 0.00771008, -0.0574683, -0.00797517, -0.0318539, -0.0398012, 0.0156295, 0.0904274, -0.04013, -0.0664, -0.0413788, -0.0373112, -0.0743536, -0.155849, -0.0252567, 0.00128825, 0.147134, 0.157198, 0.00482964, 0.000779835, 0.0987422, -0.0823206, -0.048181, -0.0744597, 0.0790027, 0.0892162, -0.126307, 0.0899771, 0.0364191, -0.0898311, -0.0181005, 0.128162, 0.118593, 0.0911947, -0.0295381, -0.0308644, 0.0132084, 0.0786635, -0.031434, -0.0873726, 0.0811251, 0.273617, 0.0123737, -0.0413059, 0.0465184, -0.122292, -0.0482161, 0.12557, 0.0542738, -0.0779067, -0.0511698, 0.0489742, -0.133255, 0.00773263, -0.105236, -0.10192, -0.0365817, 0.136705, -0.0944218, -0.0434973, -0.0135247, -0.0787495, 0.0640067, -0.0911075, -0.0955926, -0.0776412, -0.0911256, -0.104488, -0.114528, 0.0137755, 0.0530754, -0.0178829, 0.0197827, -0.0363311, -0.023272, 0.0272143, -0.129277, -0.020756, 0.0611666, 0.10791, 0.131812, -0.103032, -0.0702629, 0.129102, -0.0386084, 0.0331322, 0.0667373, -0.0142679, -0.186346, 0.0653807, -0.000632316, 0.116288, 0.0189774, -0.102627, 0.151324, 0.101009, 0.0237709, 0.0205295, -0.000274996, 0.113861, 0.0528824, 0.0164973, 0.156743, 0.166894, -0.0739471, -0.104549, 0.128558, 0.102287, 0.0661793, 0.0122502, 0.0488275, 0.169046, 0.082779, 0.150317, 0.0651024, 0.106226, 0.0717181, 0.122207, 0.0167475, -0.114521, -0.116656, 0.0318925, -0.00588861, 0.155725, 0.0303469, 0.0813958, -0.138824, 0.0542561, 0.0511975, -0.100616, -0.0027464, 0.0157868, 0.22082, 0.251974, -0.0795575, 0.0047089, -0.0818291, 0.120119, 0.0823723, 0.121423, -0.0181419, 0.0413376, -0.111035, -0.00772665, 0.0872647, 0.105242, 0.0747873, 0.0769563, 0.100616, 0.197718, -0.163454, -0.0439533, 0.0600646, 0.137363, 0.0407179, 0.0983031, -0.0951291, -0.0384783, 0.0424655, -0.0532075, 0.0274042, 0.0357084, 0.101393, 0.0174834, 0.0383922, -0.0529448, 0.00432838, -0.0647489, -0.0981416, 0.0954451, -0.0420833, 0.0715958, -0.153961, -0.0204279, 0.0445272, 0.041107, 0.0196805, -0.165442, 0.0753896, 0.0884224, -0.0963425, 0.00298298, 0.0433293, -0.0542451, -0.148422, -0.0155207, 0.021607, 0.186907, -0.230175, 0.00633187, 0.0155566, 0.198246, -0.0153612, -0.0449437, -0.0850037, 0.00730887, -0.0103817, -0.033698, -0.0203469, 0.151437, -0.0874974, 0.0761296, -0.0102589, 0.197494, -0.195295, 0.0661646, 0.182057, 0.0322275, -0.0174083, -0.0381351, -0.0376688, -0.0681338, 0.115208, 0.0373611, 0.0208729, -0.079089, 0.00699204, 0.0388768, 0.0755671, 0.07777, 0.0568802, 0.227915, -0.172864, 0.000158395, -0.0835693, 0.031882, -0.0298239, -0.162549, 0.182637, 0.202594, 0.165047, 0.0596401, 0.0242253, 0.125713, 0.0950921, -0.060559, 0.0752604, 0.191411, -0.0439291, -0.0881792, -0.0137525, 0.0603574, -0.0140184, 0.00478754, 0.100304, 0.0346402, 0.13123, -0.071146, 0.0265934, 0.0666875, 0.070917, -0.0205232, 0.115883, 0.0791649, -0.0632233, -0.00397418, -0.0299587, -0.130003, 0.128609, -0.0560621, 0.0244856, -0.0728123, -0.118485, -0.0621565, -0.0840616, 0.0808707, -0.00682117, -0.0148789, -0.0784852, -0.0676176, -0.017293, -0.0666403, -0.0273461, -0.0838849, 0.138081, -0.089912, -0.0415952, -0.1117, -0.0578141, -0.107524, -0.021667, 0.0736267, -0.0354816, 0.053104, 0.104122, -0.0645869, 0.00379009, -0.0913777, -0.00972248, 0.160881, 0.024909, -0.0254351, -0.11924, -0.13248, 0.0769254, 0.00504776, -0.0306088, 0.0141923, 0.169402, 0.0439388, -0.159724, 0.0330912, 0.0889773, -0.0095097, -0.0217378, 0.0261461, -0.0948261, -0.0842246, -0.0315707, -0.189851, 0.133398, -0.0761905, -0.00256629, 0.11888, 0.136409, -0.103495, -0.0350221, 0.119163, 0.104999, -0.114095, 0.00694853, -0.122406, -0.0399601, -0.0398955, 0.0878935, -0.22476, 0.0707803, -0.157917, -0.0205148, -0.0263868, 0.0888902, -0.0382492, 0.0375587, -0.105718, 0.0639096, 0.00379754, -0.0152008, -0.0202931, -0.0412268, 0.0520548, 0.0369079, -0.11436, 0.106761, -0.0799721, 0.0215458, -0.133865, -0.134915, -0.0840074, -0.0410886, 0.0669983, 0.0847932, -0.11798, -0.120435, -0.0354533, 0.0265632, 0.0176149, 0.0512801, 0.00999427, -0.1049, 0.0207884, 0.0487594, 0.0235508, -0.0378414, -0.0362439, 0.144982, -0.0533209, -0.0619718, 0.00813508, -0.0619739, 0.0154794, 0.14451, 0.0748428, 0.134229, 0.0472166, -0.0467092, -0.0210292, -0.00741904, 0.0654634, -0.00327103, -0.0392311, 0.0835945, -0.0612685, 0.0302703, -0.0554329, -0.00308418, 0.0351974, 0.1049, -0.00528799, -0.0890756, -0.071915, 0.0803886, -0.124012, 0.100883, 0.116394, -0.0402016, -0.0070391, 0.0935231, 0.0425575, 0.114192, -0.0324861, 0.0109311, 0.0283702, -0.0334064, -0.0835201, -0.00993501, -0.0871805, -0.0167423, -0.0392508, 0.0645602, -0.00995558, 0.0225414, -0.0138246, -0.0240762, -0.074967, -0.0451393, 0.0149119, 0.00286973, -0.0790513, -0.0474978, -0.138473, -0.112943, -0.123452, -0.0467128, -0.0613824, 0.00975505, -0.0525721, -0.010512, 0.0369263, 0.100861, -0.0264401, 0.0697632, -0.0356326, -0.0223325, 0.0256393, 0.0683116, -0.0637495, 0.0259845, -0.0560965, -0.0885812, -0.0380744, 0.0292411, -0.0283336, -0.0792185, -0.0393928, -0.082448, 0.0498102, 0.0103806, -0.00103019, -0.0159149, -0.0344387, -0.0185283, 0.0476616, 0.0589525, -0.0428194, -0.0415427, 0.0622336, 0.0426059, -0.0203845, -0.0941487, 0.0748035, 0.0421376, -0.0245762, -0.108524, 0.0853202, 0.0114052, 0.135958, -0.00945767, 0.0946802, 0.0788289, -0.0103546, -0.0788158, 0.0455369, 0.110729, -0.00121739, -0.0801861, -0.0430886, -0.0123587, 0.0182378, 0.0247204, 0.0699329, -0.0331568, 0.119335, -0.00459982, -0.0269856, 0.032668, 0.000354928, -0.000893804, -0.0586131, -0.0863114, -0.0940102, -0.0932395, 0.0651008, -0.0497562, 0.0551208, -0.0855173, -0.00704764, -0.047266, -0.0364147, -0.0662086, -0.195673, -0.108306, 0.00809899, -0.0374107, -0.084879, 0.0538655, 0.0636473, 0.0601884, 0.0147776, -0.0982456, 0.0155315, 0.107308, 0.00936455, -0.140191, 0.0786541, 0.00186572, -0.0791755, -0.0822514, 0.0483156, -0.0261948, 0.0542122, 0.0545245, -0.057056, 0.067049, -0.0632827, -0.0107291, -0.00410077, -0.0133982, -0.0319373, 0.0867403, -0.000681355, -0.0401004, -0.113749, 0.00331563, 0.0408424, -0.0681237, -0.0110909, -0.0579351, -0.135389, -0.0446356, -0.00984992, -0.0673145, 0.0069415, 0.0190967, 0.0673806, -0.0856003, 0.0195347, 0.0124242, 0.0141013, -0.0127432, -0.056602, -0.0206874, -0.0862163, -0.135769, 0.06593, 0.00956848, -0.0684445, -0.134043, 0.0823798, -0.0780128, 0.0484894, 0.0484223, -0.195194, 0.0232425, 0.0520081, -0.0747406, 0.0343171, 0.0291328, 0.0677769, -0.147833, -0.0172878, -0.0423047, -0.000536842, -0.0143061, -0.0272891, -0.131328, 0.0231144, 0.00516344, 0.0718199, -0.0837785, 0.0335692, 0.115882, -0.066069, 0.0159458, 0.0280541, 0.0473663, -0.111056, 0.000961674, 0.0557396, -0.033103, -0.0281596, -0.169151, 0.0358802, -0.0279017, 0.0192117, -0.00293323, 0.0409446, -0.0345482, -0.0346359, -0.0122942, -0.0223197, 0.0992272, -0.0305261, 0.00736139, 0.0527556, 0.0405214, -0.0460938, 0.0354307, 0.00765034, 0.112074, 0.0113327, 0.0732381, 0.0464853, -0.123946, -0.104182, -0.0585381, 0.0252055, 0.0614569, 0.0197343, -0.0494905, 0.147754, 0.0667737, 0.0812115, 0.0197681, 0.0702524, 0.0447686, -0.0147982, 0.0418784, 0.101264, 0.0213742, -0.00707075, -0.0873355, -0.0329994, 0.00913488, -0.00797295, -0.0147041, -0.0549502, -0.0938653, 0.0526717, 0.0407731, 0.0740306, 0.0241376, -0.0364923, -0.0469368, -0.0984253, 0.0337069, -0.103438, 0.0854394, 0.0914037, -0.0747737, -0.0730876, 0.054282, 0.0755782, 0.0344268, -0.000424247, 0.0607573, -0.0233418, -0.0487777, -0.241026, -0.0462597, 0.0691607, -0.0772094, -0.0577279, 0.0913493, 0.0432158, -0.132957, 0.0973586, 0.105328, 0.032706, -0.0656025, 0.0872697, 0.155948, 0.100418, 0.01381, -0.0728059, -0.160265, 0.134484, -0.00728639, -0.00916057, 0.0265745, -0.0311866, -0.212017, 0.0842414, 0.12797, 0.0192398, 0.0215401, 0.1133, -0.131956, -0.0366735, 0.018622, -0.0389224, -0.0206254, -0.0544627, 0.00134758, 0.0613969, 0.0388327, -0.151424, -0.0963741, 0.10559, 0.0442501, -0.153478, 0.136456, 0.050867, -0.187495, -0.112567, 0.107551, 0.122621, -0.0215069, 0.0575325, 0.0588927, 0.18225, -0.232937, -0.0872116, -0.051219, 0.124898, 0.0059959, -0.0624808, 0.140801, 0.0605246, 0.0111699, 0.0742154, 0.0708001, 0.108686, -0.0534412, 0.0354953, -0.00748554, 0.115104, -0.0403918, 0.0585658, -0.0871516, 0.0917304, -0.0691242, 0.131095, -0.0412138, -0.0883558, 0.0500563, -0.00423408, 0.0442634, 0.0300645, 0.0569369, 0.0945849, 0.15172, 0.0636127, 0.0283495, 0.0511384, -0.0272458, -0.0392025, -0.0344334, -0.00951817, 0.0600466, 0.0268382, 0.0150184, -0.0674085, 0.147939, -0.0214933, 0.0568844, 0.165325, -0.0190267, 0.0719816, 0.11312, -0.0891185, -0.159534, -0.0366527, 0.165801, 0.133594, 0.000194953, 0.0538286, 0.087425, -0.050061, -0.0675814, -0.0701192, 0.041264, 0.0256123, -0.019167, 0.0439754, -0.0733177, 0.040802, -0.109036, 0.0966559, -0.0133363, 0.0515062, 0.160599, -0.0654286, 0.0891351, -0.0184956, -0.0652184, 0.0552402, -0.0543666, 0.0553434, 0.151501, 0.0400398, -0.0248639, 0.0455946, -0.0152618, 0.0909608, 0.0397847, -0.121914, 0.0539972, -0.0923789, 0.015985, -0.0721623, -0.0108148, 0.165431, 0.0798118, 0.0470171, 0.0552061, 0.163666, 0.0617544, 0.106217, 0.0565745, 0.191496, 0.0210917, -0.0683092, -0.00964077, -0.132433, 0.0334235, 0.018347, -0.0580926, 0.0457775, -0.0478525, 0.0475647, 0.0205274, 0.0690127, 0.0144146, 0.0994524, -0.0483042, -0.00714445, 0.023003, -0.0264384, 0.119046, -0.0230828, -0.0503015, -0.126334, 0.0232181, -0.0724172, -0.00391466, 0.0816415, 0.169371, -0.0236418, 0.00802149, 0.0110872, 0.150754, 0.0512934, -0.107075, 0.0516618, 0.0176471, -0.0259578, -0.0827335, -0.0566636, 0.11047, -0.245742, -0.0968308, -0.0243134, 0.13091, 0.0152826, 0.0698586, -0.0674453, 0.0612838, 0.100798, -0.0461394, 0.136323, 0.00715253, 0.0596226, -0.0744004, 0.0855193, -0.158783, -0.272609, -0.125562, 0.0656217, 0.0343163, -0.229256, -0.0568599, 0.0985024, 0.0149094, 0.0978084, -0.0642222, 0.166191, -0.206002, 0.050243, -0.120701, -0.0350822, -0.0989038, -0.171013, -0.0439654, 0.0651234, 0.128005, -0.335622, 0.0883432, 0.0896844, 0.0461447, 0.00492663, 0.0820085, -0.0599663, 0.0460608, 0.0714143, -0.0600995, -0.0434112, 0.0238558, -0.10148, 0.00605372, 0.0803847, 0.0647288, 0.0191009, 0.0808618, -0.0679746, 0.0914238, -0.0509606, 0.108647, -0.0327802, -0.0464596, -0.123436, 0.0776651, -0.0301404, 0.00321932, 0.000421098, 0.00695298, 0.0254092, -0.0161171, -0.0672145, 0.0179484, -0.0646044, 0.0932699, -0.143983, 0.0908905, -0.0436176, 0.0626649, 0.0659597, -0.0571972, -0.0849964, -0.0394154, 0.0607128, -0.106741, -0.0503465, -0.0226639, 0.0281407, -0.0365645, -0.0297633, 0.133826, 0.0717408, -0.0722652, -0.017516, -0.0967779, -0.0267313, -0.0908322, -0.0192469, -0.0165426, -0.0405161, 0.00620735, 0.0385201, -0.114309, -0.0980974, 0.0715933, -0.0358672, -0.0156411, -0.0645073, -0.0482564, 0.104138, -0.156637, -0.0459265, -0.00372028, 0.00268608, -0.0230863, -0.194409, -0.0161915, -0.00369167, -0.133158, -0.0827096, -0.0864531, -0.110815, 0.0540943, -0.0618802, -0.0539366, -0.0730015, -0.0165493, -0.00371067, -0.0507745, 0.109787, 0.0360806, -0.133319, 0.0167756, 0.0234483, -0.067346, -0.247355, 0.0216693, -0.0922804, 0.0964078, 0.0982089, 0.0486078, 0.0938583, 0.0139426, 0.0780989, -0.000738256, -0.073009, 0.071062, 0.0182189, -0.10218, 0.0715692, 0.043777, -0.0696271, 0.068072, 0.00183123, 0.0862715, -0.0993073, -0.0888313, -0.0427443, 0.0365072, -0.0758387, -0.0190267, 0.0898023, -0.0113945, 0.0309133, -0.0872763, -0.0465417, 0.0175317, 0.0247683, -0.0602131, -0.0220021, -0.00982085, -0.0600601, -0.0563792, 0.0290251, 0.0236396, -0.0536747, 0.039543, -0.0134347, -0.0914001, -0.12283, -0.0345059, -0.134934, -0.00881772, 0.000276169, -0.0811196, -0.0184956, -0.0147596, -0.0379821, 0.0412708, -0.0400333, 0.0962329, 0.0335529, 0.0259976, -0.0076268, 0.0838064, -0.0124922, 0.0660871, 0.0349116, -0.0289615, 0.11257, 0.0063956, -0.0864182, -0.0563284, -0.0201858, 0.0516831, 0.0553443, 0.126095, 0.0907354, -0.0721044, -0.0409832, 0.0262798, 0.0178653, -0.0309793, -0.000430095, 0.0669078, 0.00916507, 0.0691121, -0.0972401, -0.0217027, 0.0535999, 0.0927038, 0.0287101, 0.0826323, -0.0569101, 0.0261896, 0.0133825, -0.108799, -0.0804671, 0.0469218, -0.037622, -0.0789199, 0.0490958, 0.0790501, -0.0589889, 0.00161905, 0.0457741, 0.0940563, -0.0814437, -0.00663495, -0.00281201, 0.0395505, -0.0754996, -0.0252021, 0.0603762, -0.0505512, -0.08174, 0.0590071, 0.00490952, 0.0566615, 0.0628215, -0.0826614, -0.0214457, -0.0116588, 0.0124828, -0.0193434, 0.0193123, -0.089948, 0.0632668, 0.079572, -0.00212713, 0.0131652, 0.00941576, -0.0129433, -0.127166, 0.0545067, 0.0899338, 0.0493949, 0.103625, 0.0514941, 0.0921924, -0.0854582, 0.0909921, -0.0596223, 0.059869, -0.00161681, -0.0710188, 0.0123525, -0.0215042, 0.0555083, -0.0464387, 0.0598237, -0.0855653, -0.0335357, -0.051079, -0.0672639, -0.0537685, -0.0907624, 0.0942103, 0.0119437, -0.119126, 0.00808644, -0.0739208, -0.0496674, 0.0234295, 0.0458411, -0.0750028, -0.098651, 0.0562009, -0.087188, -0.0726749, -0.0370693, 0.0811254, -0.0687828, 0.0131176, -0.068823, -0.0111325, -0.00654173, 0.0913058, -0.0627752, 0.0787895, 0.0263601, 0.0520758, 0.0088389, 0.0774013, -0.0695866, 0.059313, -0.0324025, -0.0383956, 0.0862394, 0.0365255, -0.0499922, -0.06513, -0.0591567, 0.0346986, 0.0276531, 0.0382815, 0.0688285, -0.0132938, 0.00093908, 0.0449401, -0.0423051, 0.080424, 0.0537779, 0.0828948, -0.0842974, 0.0576444, 0.0378299, -0.0821083, -0.00702934, -0.0585867, 0.03832, 0.0677147, 0.085053, 0.0338294, -0.0226839, 0.0630127, 0.0863443, -0.00584177, -0.100513, -0.052053, -0.0431825, 0.0796247, -0.0541896, -0.0707303, 0.0949015, 0.0483242, 0.0686285, 0.0537464, 0.0865053, -0.0305795, 0.0844644, -0.0938045, 0.0993763, 0.0232673, -0.0689481, -0.00483914, -0.0903185, -0.00929773, 0.0588762, 0.00403779, 0.0342665, 0.0800028, 0.0806512, -0.0743515, 0.00779643, 0.0208581, -0.00793658, -0.113884, 0.0444465, -0.00556815, -0.0717893, 0.0554917, -0.0165781, -0.0684301, 0.0329418, 0.000261268, 0.0686363, -0.0251478, 0.0760574, -0.11289, 0.0858385, -0.108234, -0.0843546, -0.0383344, -0.0939227, -0.0270676, -0.0759626, -0.0298195, 0.0790625, 0.0376388, -0.0661565, -0.00345119, -0.0103405, -0.119131, -0.0429261, -0.0321125, -0.0689965, -0.080279, -0.0058292, 0.0783635, -0.109468, -0.105002, -0.0187579, -0.0418249, -0.00359152, 0.067325, -0.0682554, 0.00143331, -0.0404376, -0.0859025, -0.0873637, -0.00703542, 0.113655, -0.106777, 0.0409707, -0.0760076, -0.0713499, -0.0801773, 0.0861568, -0.0134524, 0.0455803, -0.0761958, -0.012916, -0.097374, 0.0301443, -0.0936093, 0.0677392, 0.0859512, 0.0808924, 0.0345713, -0.0343055, -0.0958238, 0.0522363, 0.0430799, 0.0336366, 0.0494487, -0.025815, 0.0953796, 0.0448585, 0.0186368, 0.0960158, 0.0701364, -0.0847912, -0.0807322, -0.049399, 0.071775, -0.0875835, -0.0509184, -0.0594958, 0.0649251, -0.0493633, -0.0607512, 0.0597062, 0.0431049, -0.0229014, -0.069777, 0.0255901, 0.0237438, 0.090076, 0.0593913, -0.0123841, -0.0692166, -0.030178, -0.0162077, -0.0412973, -0.0293138, -0.0482929, 0.106541, -0.0338952, -0.0780666, -0.0773436, 0.0681064, -0.0605233, -0.0556676, 0.0617649, -0.0284488, 0.0545054, 0.0332686, -0.0514436, -0.0745278, -0.0509358, -0.0166604, -0.0467061, 0.00911947, -0.0579108, 0.0535346, 0.0487353, -0.000792579, 0.0813702, -0.0385275, -0.0155591, -0.0253733, 0.0982506, -0.0158107, -0.00891077, 0.0378089, -0.105246, 0.088165, 0.0648297, 0.0709994, -0.037485, 0.100595, -0.0419492, 0.0428422, 0.0601644, 0.113721, 0.00500793, 0.0583101, 0.103336, -0.00587358, 0.0130514, -0.102841, 0.00779171, 0.058517, -0.00315808, -0.040929, 0.0304022, -0.0627374, -0.0448083, -0.0210209, 0.0395572, 0.00736732, 0.0255831, -0.0197285, -0.0551562, -0.000235093, -0.0829068, -0.125733, 0.0721947, -0.0128699, 0.00739138, -0.0569715, -0.0685368, -0.0448065, 0.0815256, 0.081477, 0.0622101, 0.0270991, -0.0908271, -0.0181845, 0.0170094, 0.0121219, -0.135145, 0.0455534, -0.0776153, 0.117139, 0.0632424, -0.0470581, -0.000839228, 0.0283002, 0.0490035, 0.00241692, 0.0434168, 0.0653474, -0.030448, -0.0578936, 0.0550565, -0.0403643, 0.0128622, -0.0299642, 0.0978488, 0.0238516, 0.0667211, 0.0298862, -0.0606563, -0.0881618, -0.0642372, -0.0773577, 0.0813949, 0.0315175, -0.017182, -0.0653912, 0.0384116, 0.0410244, 0.0847046, -0.109092, -0.0670925, -0.00728997, -0.0594449, 0.0504089, -0.0634038, 0.0734327, 0.0145408, 0.0483276, 0.0836165, 0.0692886, -0.0569037, 0.0500139, 0.104866, -0.0973126, -0.0140675, -0.0153244, 0.0641663, -0.0090562, 0.00226211, -0.0549348, 0.0267219, 0.0904377, 0.000473702, 0.0221034, -0.0683732, 0.130719, 0.0898193, -0.130956, 0.0419755, 0.0460811, -0.0542272, -0.050432, -0.051418, 0.0649276, -0.0250014, 0.00171361, 0.135471, -0.0645977, -0.0772906, 0.0125161, -0.0429587, 0.101227, -0.0748934, -0.0273803, 0.100541, 0.0652883, -0.0367797, 0.0425724, -0.0313877, 0.0291776, -0.00459895, 0.0538284, -0.0879146, -0.0750652, -0.0176413, 0.0684579, 0.0178786, 0.000263709, -0.0742269, 0.0569681, -0.0988697, 0.000814284, -0.025715, 0.0325907, -0.0889564, -0.0229805, 0.0754979, 0.0490104, 0.0417308, -0.0322756, -0.0566557, -0.0956003, -0.0135881, -0.0387183, -0.0300109, 0.0135084, -0.0384386, 0.0445506, 0.0145375, -0.053366, -0.0447671, -0.0639172, -0.0612645, -0.0774321, 0.042617, 0.0393212, -0.0752585, -0.0829387, -0.0548256, 0.016666, -0.0751937, 0.0724411, 0.0939986, 0.0975267, -0.0136024, 0.0135696, -0.0421287, -0.0449295, -0.0435886, -0.0230432, -0.0148186, -0.0697754, -0.0399218, -0.0604055, -0.00671646, 0.0287115, -0.119862, 0.0460681, 0.0855633, 0.128467, 0.0833389, 0.03315, 0.0692588, -0.0675527, -0.0360551, 0.00739317, -0.0221082, -0.0532239, -0.0694202, 0.0621702, -0.11112, 0.0730912, -0.0121245, -0.0542605, -0.0339782, 0.0138003, -0.0640309, 0.0179468, 0.077568, 0.0627182, 0.00981276, -0.0421885, 0.0410529, -0.0808477, -0.0104741, 0.0655857, -0.0702135, 0.0622557, 0.0608161, -0.0376298, -0.0647091, 0.0384264, 0.0716776, -0.0585304, -0.0647779, -0.061448, 0.0636112, -0.0485331, 0.0292453, -0.0298276, 0.0573336, -0.0585477, -0.0833514, 0.07346, -0.0725284, -0.0110827, -0.0601922, 0.0387659, -0.0392193, -0.0846031, 0.0617542, 0.113078, -0.0361999, 0.00366116, 0.00585578, -0.0741203, 0.0439326, 0.01927, -0.00467944, -0.0471358, -0.0588146, -0.0536609, -0.0647845, -0.0498733, 0.0117487, -0.0904977, -0.0286259, 0.0889793, -0.0697483, 0.0035158, -0.0670756, 0.0567495, 0.0814991, -0.0454187, 0.00289244, 0.0616616, -0.0319701, 0.0141932, -0.111169, 0.0191643, 0.0304854, 0.032489, 0.0772929, 0.0459356, -0.0359779, 0.0843377, 0.0246946, -0.0339717, -0.0015338, -0.0207308, -0.0125188, -0.0301869, -0.100272, -0.0347033, -0.0619038, -0.0944619, 0.0398856, 0.041231, 0.0829243, -0.0926166, 0.0162082, -0.108008, -0.0752016, 0.0524087, -0.0630397, -0.0438924, -0.00934654, 0.0531955, 0.0302253, -0.021427, 0.0584756, 0.01062, -0.0149221, 0.00247333, -0.00109516, -0.00825551, -0.0814856, -0.124662, -0.107898, 0.00303197, -0.0641677, -0.109755, -0.0956156, 0.0885819, -0.0233059, -0.011109, -0.0711437, 0.0918875, -0.0663345, 0.0106202, -0.0307162, -0.0914588, 0.0386857, 0.0649686, -0.0971598, 0.0683508, -0.0852379, -0.0958452, -0.064713, -0.0412109, 0.0642916, -0.0533328, -0.0232585, -0.0270532, -0.0220319, 0.0224928, -0.0698305, -0.0365842, 0.0476973, -0.0511249, -0.070287, -0.0859203, 0.0558612, 0.0477221, -0.0977965, -0.0428659, -0.0512225, 0.0541817, 0.00726376, -0.0483995, 0.05561, 0.080589, -0.0200065, 0.0277321, -0.104683, -0.107421, -0.079175, 0.0351265, 0.0310493, -0.0287316, -0.0867862, -0.098582, -0.115959, -0.0481451, -0.032404, -0.0550028, -0.0209775, 0.0983392, 0.0248419, 0.0717584, -0.115015, 0.0145211, -0.0847147, -0.0756465, 0.179398, -0.0854928, -0.0348901, -0.0696301, -0.0703038, -0.133464, -0.0381983, -0.0205455, 0.12073, -0.0529594, 0.00609772, 0.0149767, -0.0302997, 0.0217568, -0.0634552, -0.0948136, 0.137574, 0.014683, 0.0808863, -0.071896, 0.0772998, 0.0626122, -0.1208, 0.0284379, 0.0895588, 0.0834614, 0.113611, 0.0135327, 0.0343786, -0.0490512, 0.0401792, -0.0858546, 0.11032, 0.123716, 0.0013407, 0.0844517, -0.0526668, -0.0131848, -0.102242, 0.0672486, -0.000952534, -0.0112353, -0.0685133, -0.0629079, 0.0185645, -0.0534019, -0.0310273, 0.094329, 0.139635, -0.0765088, -0.0137487, 0.0361532, 0.0262594, 0.00456902, 0.0458759, -0.097266, -0.140469, -0.0363226, 0.0853564, -0.0631318, 0.0979456, -0.0452383, -0.196707, -0.0783403, 0.107873, 0.071975, 0.013818, -0.173816, -0.134038, -0.113612, -0.113221, -0.0081873, 0.020582, 0.118889, 0.0900993, 0.0346496, 0.127573, -0.156825, -0.159961, -0.0942089, 0.0579822, 0.0752259, 0.0575048, -0.18813, -0.0384293, -0.00385871, -0.231317, -0.127575, 0.0549396, 0.0790987, -0.0154658, 0.0481936, 0.0919466, -0.180085, -0.371104, -0.0759266, 0.0999764, -0.0697779, 0.010219, -0.140597, -0.0567676, -0.142231, -0.120181, -0.150395, 0.125213, 0.200186, 0.00192874, -0.1352, -0.00705077, 0.00368079, -0.177857, -0.102626, 0.0588919, 0.0277118, -0.0268315, 0.0610239, -0.0210026, -0.186264, -0.0271806, -0.085389, -0.0296217, 0.0237831, -0.00997574, -0.146496, 0.0500803, -0.0720503, -0.104641, -0.122786, 0.0337391, 0.0903548, 0.0101674, 0.168683, 0.0715606, 0.0819266, -0.15801, -0.0271198, -0.0333875, -0.0719711, 0.0962813, -0.0828656, 0.0389729, 0.0928365, 0.0997229, 0.0398005, -0.00709531, 0.00153177, 0.0771122, 0.127081, -0.0453216, -0.0124574, -0.0612509, 0.028645, 0.0154389, -0.0267665, -0.11048, -0.12427, -0.0122963, -0.0871284, -0.00296212, -0.0695873, 0.0772867, 0.125364, 0.138823, -0.120496, -0.0772829, 0.057131, -0.0237885, -0.156613, 0.0947375, -0.0185805, -0.274468, 0.0546917, 0.133511, -0.0382499, 0.0449091, 0.0666374, 0.16177, 0.264313, -0.0826453, -0.0597152, 0.104963, -0.0342616, 0.0628535, -0.28002, -0.0801679, 0.12035, -0.171038, -0.0125972, 0.201622, 0.0799649, 0.0992964, -0.0881071, -0.130161, -0.147057, -0.0690103, -0.0579381, 0.0660284, 0.064691, -0.0680919, -0.284094, 0.0178716, -0.141656, 0.130435, -0.0107558, 0.142503, 0.0354639, -0.172421, -0.0498329, -0.0961248, 0.0400841, 0.0963123, -0.115989, -0.0408058, 0.0364523, -0.0820677, -0.190777, -0.150748, -0.153961, 0.022746, -0.0436765, -0.194586, -0.0193507, -0.12664, -0.0904759, -0.0383504, -0.0493949, -0.0526298, -0.0319432, -0.0663281, 0.0487076, -0.0412147, -0.0536428, -0.0285017, -0.0437657, -0.182151, -0.0218961, -0.0333398, 0.0566123, 0.0915042, 0.0207059, -0.0799246, -0.103917, -0.0789949, 0.032766, -0.0839091, 0.0520702, -0.0291013, 0.0683602, 0.171176, -0.0637148, -0.040495, 0.0986706, -0.185756, -0.0125826, 0.107953, 0.0354248, -0.0838934, 0.0934523, 0.0957862, 0.140208, -0.127928, 0.0620499, 0.0335453, 0.0266786, 0.00101034, 0.0264765, 0.0753801, 0.0868531, 0.0366315, 0.0177343, 0.397124, 0.0148963, 0.0383294, -0.0522423, -0.0538788, 0.127437, 0.14895, 0.121691, 0.158926, 0.286624, 0.0513943, 0.0533956, -0.07128, -0.0113417, 0.118061, -0.0383209, 0.196462, 0.102216, -0.00431932, -0.124478, -0.0310048, 0.202212, 0.07879, 0.174738, 0.113369, 0.261707, -0.0744342, -0.155905, -0.138485, 0.15715, -0.0545337, -0.123798, 0.0555919, 0.052559, 0.0148234, 0.0849354, -0.0303622, 0.1317, 0.0884646, -0.0053142, 0.0489607, 0.208649, -0.115617, -0.0240006, -0.0747409, 0.126905, -0.197479, 0.228192, -0.0723723, 0.124392, -0.0456147, 0.0614532, -0.117982, 0.057815, 0.00442873, -0.0760445, 0.045114, 0.0542088, -0.0211586, -0.0532683, 0.0204847, 0.0132832, -0.168558, 0.08473, -0.0494584, -0.126302, -0.145376, -0.0515831, -0.0866172, -0.088186, 0.00655431, 0.0670642, -0.00850238, 0.0192498, -0.00905045, -0.0941378, 0.0687673, -0.0930076, 0.139374, 0.0903968, 0.0775064, -0.0237829, -0.0291161, -0.0549389, 0.00404223, 0.124217, -0.059772, 0.050406, 0.046459, 0.0738408, -0.0670699, 0.0779684, 0.083925, 0.0354438, -0.0200132, -0.1402, 0.242538, -0.0928177, -0.028865, 0.0423567, -0.0393462, 0.138346, 0.0126585, 0.112139, -0.0464876, -0.0343193, 0.0339444, 0.0323194, -0.0233153, -0.0397346, 0.0257918, -0.0665596, -0.0389419, -0.0436864, 0.086135, -0.0285041, 0.011034, 0.0768695, -0.0600887, -0.0543255, 0.0327298, 0.130018, -0.0909491, 0.0452319, -0.124502, 0.0245998, -0.0811356, 0.116689, -0.175935, -0.0751636, -0.13038, 0.000266829, -0.0589428, 0.00202474, 0.0847783, -0.0894377, -0.0661886, 0.0449382, 0.0432117, 0.220329, -0.0277513, 0.179691, -0.0430268, -0.119254, 0.0962237, -0.0519825, -0.0478834, -0.0115151, -0.0291613, -0.10157, 0.102891, 0.064589, 0.0788501, -0.22401, 0.0255483, 0.0276659, -0.048312, 0.0172508, -0.121188, 0.0419125, 0.0572408, -0.0789998, -0.0154528, -0.0128082, 0.0093219, -0.0470177, -0.102455, -0.00179651, 0.113435, -0.177575, 0.14462, 0.0364083, -0.076335, -0.0329986, 0.0837384, -0.00313036, -0.025118, -0.0277901, 0.0727929, -0.0496859, -0.01424, 0.0288728, 0.0636909, -0.0282104, 0.0096913, -0.0700684, 0.0543389, 0.00879074, -0.0442403, -0.0185295, -0.0850211, -0.0799366, -0.124332, 0.0762548, -0.0631263, -0.108816, 0.0940736, -0.0234172, -0.000367013, -0.0461956, 0.0711652, 0.000701723, 0.0525398, 0.0200791, -0.0243152, 0.082494, -0.0985845, 0.023987, -0.107172, 0.0908484, -0.0703894, 0.0104162, 0.130312, -0.00473884, -0.111201, 0.142764, 0.0413798, 0.0611871, 0.0735697, 0.0449091, 0.00839079, 0.0696032, -0.0164558, 0.153256, -0.0361537, 0.0169844, 0.0494189, 0.0762455, 0.0360323, -0.0051686, -0.00629319, 0.105107, -0.0180811, -0.00871481, 0.0685389, 0.168553, 0.104287, -0.082072, 0.0814754, -0.0941496, 0.053604, -0.118039, -0.0420515, -0.0370281, 0.0927629, -0.0181275, 0.0733791, 0.195662, 0.200316, -0.108646, -0.0588213, 0.0580386, 0.0955204, 0.0107933, 0.0622858, -0.0061716, -0.0394362, -0.0288737, -0.0809584, -0.0104738, -0.0558066, 0.0991852, 0.0410885, 0.0377643, -0.0418203, 0.0552639, -0.0690957, -0.0676418, -0.0260173, 0.0679017, -0.0843914, -0.0908886, 0.0808818, -0.0115219, 0.0708215, 0.015873, 0.0318955, -0.0934568, -0.00404481, -0.0708595, 0.0634236, -0.0721249, 0.0160774, -0.0156572, 0.0118637, -0.0060826, -0.0489197, 0.0112499, -0.0219775, -0.0213909, 0.0417645, 0.0310314, 0.0239481, -0.120433, -0.0738564, -0.109875, -0.0736883, -0.0474182, -0.0599273, -0.0479479, -0.0514439, 0.0858649, -0.0627969, -0.0238239, 0.0505099, -0.0619878, -0.024867, 0.088769, -0.0742224, -0.0988254, -0.0632045, 0.0144641, -0.0481158, -0.00449966, 0.0157131, 0.0541709, 0.167077, 0.0219234, 0.0395249, -0.0750653, -0.0743867, 0.0282468, 0.00325816, 0.0955184, -0.0809724, 0.0183587, -0.00644521, 0.0640622, -0.0816856, -0.0379266, -0.0613272, 0.0543483, 0.107572, -0.0389732, 0.0264708, 0.0316642, -0.0766866, -0.0156632, 0.029404, -0.00917677, -0.0427216, -0.0432323, 0.0726522, -0.0143729, -0.0444585, -0.0385046, -0.0639403, -0.00234499, 0.0385098, -0.0328823, -0.0886585, 0.0561977, 0.0897764, 0.0880935, 0.0728636, -0.0228271, 0.0621907, 0.0505441, 0.037544, 0.0408702, 0.0301233, 0.0571439, 0.0200405, 0.00806586, 0.0516945, -0.0719019, 0.00475833, 0.0169545, 0.0185413, -0.0885137, -0.0251483, -0.0923832, -0.00957619, -0.0706563, -0.103886, -0.044194, -0.010515, -0.0463051, 0.0685354, 0.0548578, -0.0294765, -0.0765053, -0.0816076, 0.0222275, -0.0977832, 0.0636096, -0.0563221, 0.0441697, -0.0311424, -0.181026, -0.0692165, -0.0259654, -0.0630528, -0.126356, 0.0322689, -0.0370476, -0.0516391, -0.0945904, 0.0161923, -0.0727645, 0.0542927, -0.0618897, -0.0344146, 0.126612, 0.012959, -0.146563, -0.0322176, 0.00622603, -0.146845, -0.0562748, -0.0224084, -0.0361069, -0.0426769, 0.016452, 0.080599, 0.077686, -0.0239141, -0.0681778, -0.0186768, 0.0928088, 0.0485051, -0.0514878, 0.10745, 0.0438994, -0.0436389, -0.114533, 0.031112, 0.000147923, -0.137224, 0.0100364, 0.137417, -0.0127705, -0.0213008, -0.105906, 0.0225558, -0.0741254, 0.0120711, 0.0254865, 0.0856582, 0.0975042, 0.0260697, 0.0953107, 0.00987803, 0.0712987, 0.040168, 0.056284, -0.0975096, -0.00894953, 0.00448982, -0.0945785, -0.0731442, -0.0145803, 0.0683835, -0.0382168, 0.0681549, -0.0404144, -0.0256082, -0.045286, -0.186147, -0.0302998, -0.0578448, 0.0474848, -0.108335, -0.0198025, -0.0563745, -0.020233, 0.0458375, 0.0738517, -0.0943049, -0.10838, -0.0548143, -0.0913787, -0.0115288, -0.056036, 0.081678, -0.0586589, 0.0181427, -0.0870732, 0.117885, 0.147846, -0.0171623, 0.0159084, 0.0585118, 0.0341842, 0.030109, -0.0293857, -0.0983442, 0.00791158, 0.0995171, -0.0518542, 0.00584114, 0.054748, -0.162852, -0.0427856, 0.0464828, -0.0570584, 0.0896902, 0.0404518, -0.0151234, 0.0560389, -0.0393755, -0.171312, -0.0398426, 0.153553, 0.05515, -0.0303841, 0.0656864, 0.0909513, -0.0906507, 0.047653, -0.0845683, 0.039779, 0.0619525, 0.0192271, 0.110044, 0.0828652, 0.0613198, 0.00386182, 0.0504423, 0.0706552, -0.0516001, -0.0282854, 0.00322795, 0.058931, 0.0141495, 0.0181302, 0.0955194, -0.0616218, 0.0362562, -0.0925999, 0.0729336, -0.0989198, -0.0987205, 0.0460596, -0.0525481, 0.0851314, -0.0177825, 0.0759501, 0.099602, -0.0425605, 0.0475395, -0.140634, -0.00680882, -0.0620357, 0.0903565, -0.0620583, -0.0669116, 0.0552653, 0.0142275, 0.0790712, -0.024501, 0.00690981, 0.00438042, 0.0332562, -0.0612795, 0.0225005, 0.0733987, -0.00760759, -0.0448312, 0.000274616, -0.0809774, -0.0569473, -0.077112, -0.070782, -0.0296825, 0.0245126, 0.102701, -0.0976096, -0.0808559, 0.0464465, -0.080804, -0.0147826, -0.0442146, 0.0135879, -0.0448406, 0.0593532, -0.0630653, 0.0111724, -0.0291142, -0.0260829, -0.118701, -0.185609, -0.140077, -0.141453, 0.122412, -0.0891935, 0.0276041, 0.0150327, -0.000981773, 0.0383654, 0.0416696, 0.101934, -0.0953038, 0.0734963, 0.0313801, -0.105164, 0.024331, -0.136981, -0.0697313, 0.0532579, 0.0974, -0.0294306, 0.0369803, -0.0176461, -0.0798113, 0.0939175, 0.076216, 0.00545025, -0.140074, -0.0405961, -0.00523651, -0.00228306, 0.0420654, -0.00747167, -0.0643868, 0.016908, -0.0436908, -0.151976, 0.0765791, 0.0536394, 0.0216816, 0.00629649, 0.0190432, 0.00268052, -0.0781783, -0.0185003, -0.00771766, -0.00186666, -0.0393381, -0.0451927, -0.0451946, 0.0153173, -0.0726083, -0.0967778, 0.137506, -0.0518669, -0.0348517, -0.0841771, 0.0794269, -0.116817, -0.0389102, -0.0684049, -0.0986558, -0.0321248, 0.0693037, -0.0811538, 0.0514881, 0.0825328, -0.0271239, -0.0703093, 0.0356762, -0.107594, -0.083765, -0.0623886, -0.0604582, 0.0772058, -0.024316, 0.00628014, -0.0369944, -0.0195765, 0.058233, -0.0300292, 0.0569185, -0.0666362, -0.0343382, 0.0509752, -0.0838544, 0.0104428, 0.0428848, -0.0540053, -0.053022, -0.0778638, -0.00526892, 0.0333196, 0.0771541, -0.0686705, -0.020875, -0.103494, -0.0619543, -0.0262245, -0.0552512, 0.0791389, -0.0763842, 0.116448, 0.0309522, -0.036679, -0.0233317, 0.107221, -0.0440698, -0.0569948, 0.0850206, 0.0105931, 0.151364, -0.0408198, -0.00062783, 0.0430684, -0.0611358, 0.00955045, 0.00804423, -0.0449484, -0.0496247, 0.178876, 0.0335902, 0.0347924, 0.096125, -0.109571, -0.075992, -0.0527711, -0.0668267, -0.116622, 0.00943036, 0.0799666, -0.0534115, -0.121764, -0.0112166, 0.0259643, -0.0391731, -0.119839, -0.0537518, 0.0716937, 0.0941361, -0.0331455, -0.00948788, 0.104743, 0.00250439, -0.116078, 0.0751014, -0.0098688, -0.0365311, -0.101364, 0.0063348, 0.0125092, -0.0483768, -0.11179, 0.0413314, -0.0672469, 0.0136362, -0.0486355, -0.0529898, -0.055168, -0.0492933, -0.0825861, -0.0148061, 0.0775629, -0.0371753, 0.0289655, -0.0954944, -0.0863415, 0.0732215, -0.0339479, -0.0673664, 0.0290901, -0.0180864, 0.0728468, -0.0594815, -0.0626455, 0.0103857, -0.0334132, 0.0964, -0.0102048, 0.0798328, 0.0992488, -0.0360822, 0.0198796, -0.106283, 0.0749954, 0.0886122, -0.0395573, 0.101254, -0.0439725, -0.0410265, 0.0348059, -0.0533188, 0.0166014, -0.0156053, -0.0533105, 0.0880813, 0.0330082, 0.0277911, -0.067825, 0.0533416, 0.0752088, -0.0303726, 0.0642093, 0.0793741, 0.0933305, 0.0748034, -0.0424774, 0.000370779, 0.063196, 0.0427235, -0.0803686, 0.0345989, -0.000146132, -0.0626735, 0.0357297, 0.106391, 0.061476, -0.0035137, -0.017298, -0.0297544, 0.0246498, -0.103854, -0.058866, -0.0150263, 0.0762247, -0.0756016, -0.129978, -0.0800696, 0.0467328, -0.0270998, -0.0871179, 0.0902058, -0.115995, 0.0821269, 0.0380066, -0.0442132, 0.0118624, -0.0206475, -0.0562182, -0.0934444, -0.060023, -0.00913739, -0.0055581, 0.0437185, 0.0453896, 0.0641882, 0.107408, -0.0569215, 0.0126968, -0.0314814, 0.00191458, 0.0466774, 0.0513552, -0.0523013, -0.0238677, 0.0816264, 0.0432211, 0.0315579, -0.04649, 0.000103189, 0.0646782, -0.00983375, -0.0605105, 0.0734049, 0.0637509, 0.00867034, 0.0177349, 0.0176018, 0.0069969, -0.0456956, 0.0201232, -0.0604574, -0.0282962, -0.0970935, 0.0829757, -0.0105551, 0.0158694, -0.0732104, -0.0234991, -0.0393291, 0.0617136, 0.084305, 0.0511297, -0.00140734, -0.0728025, -0.0722465, 0.0398361, 0.0725595, -0.0980994, -0.0497207, 0.0652503, -0.00413449, 0.0317504, 0.0227678, -0.0587906, 0.0290418, 0.01627, -0.0344611, -0.024955, -0.0178794, -0.0618507, -0.0240864, 0.0152413, 0.029833, -0.0312818, 0.0617923, -0.0357995, -0.031294, 0.0593676, 0.0218718, 0.064173, -0.129906, -0.0481258, 0.126066, -0.0258349, 0.020601, -0.0419581, 0.0459589, 0.0569584, -0.0483803, -0.0303232, -0.0934516, -0.0856893, 0.026071, -0.00700111, -0.0253843, 0.0868219, -0.0810566, 0.0255284, 0.17608, -0.0462597, 0.0175187, 0.105627, -0.0868938, 0.0068842, 0.0319014, -0.0475998, 0.0377047, -0.0801939, 0.0483437, 0.0415978, 0.0978401, 0.0626734, -0.0546115, -0.111909, 0.0773924, 0.0368727, -0.0806994, -0.0962318, -0.0486899, 0.00372539, 0.0171829, -0.0559438, -0.0483126, 0.0148408, 0.0887083, 0.000944077, 0.0255897, 0.018002, -0.0744046, -0.0666591, 0.056487, 0.00839105, 0.0422031, -0.0132179, 0.0322616, -0.0105542, 0.0151285, -0.00300113, -0.0882553, -0.028438, 0.036733, 0.0486638, -0.00952155, -0.00170135, 0.0799606, -0.0180609, 0.0807373, -0.0632456, 0.048697, -0.056178, -0.0156681, 0.0663256, 0.0683879, -0.00330927, 0.0390048, -0.105317, 0.0554273, -0.0231212, 0.0586723, 0.0596191, 0.0671418, 0.0436551, -0.0556041, 0.0764952, 0.056515, -0.000674513, 0.0579423, 0.028338, -0.00351782, -0.0199539, -0.000782905, 0.119571, -0.0661101, -0.0312695, 0.0991605, -0.0581789, -0.0213014, 0.064103, -0.00904187, -0.00279665, 0.00734469, -0.0940473, 0.0241174, -0.00692237, 0.00170907, 0.0330359, -0.0244298, 0.0385655, -0.0350218, 0.0230863, 0.0944834, -0.0956776, -0.0593437, 0.00664578, 0.100391, -0.00679361, -0.076527, 0.00255743, 0.0165462, 0.0243119, -0.0805558, -0.0799181, 0.0690046, 0.050182, -0.0372292, -0.0568727, 0.0463186, -0.0715902, 0.00723065, 0.0457052, 0.125732, -0.00301443, 0.0245272, 0.0446125, -0.00182804, -0.0242781, -0.00704965, 0.0565471, 0.0380926, -0.0317675, -0.0168597, -0.0453649, 0.0285089, -0.0145209, 0.0260468, -0.0829677, -0.0299916, -0.00942252, 0.0222629, 0.00833222, 0.0769042, -0.0546221, 0.00188269, 0.0851251, -0.0701086, 0.0574541, -0.0635504, 0.0324965, -0.0346152, 0.0516788, -0.11964, 0.0174728, -0.0492144, -0.0651215, 0.0418811, 0.083372, -0.0222528, -0.0253218, -0.0426739, -0.0294231, -0.0586053, 0.00805551, -0.119336, -0.0616243, -0.0736291, -0.0586348, -0.0203167, -0.0051841, -0.0290856, 0.0328292, 0.00046071, 0.077809, 0.0439164, -0.0071674, -0.00707182, 0.0108023, -0.104498, 0.0668765, -0.0193843, 0.0397952, -0.0613538, 0.0264535, -0.082942, -0.0392663, 0.00458904, -0.0971966, -0.0906314, -0.0339564, -0.083583, -0.069736, -0.0704836, -0.0636471, -0.0131669, 0.0238428, 0.00290563, -0.0946074, -0.0514367, 0.0292871, -0.0616454, -0.140685, -0.101688, -0.116067, -0.0981483, -0.123609, -0.0899787, -0.0733038, 0.0658699, 0.0302119, -0.0717454, 0.0448548, -0.0417922, 0.0319968, -0.0217329, -0.0857612, -0.046745, -0.108489, 0.0196077, -0.123287, -0.0759772, -0.101971, 0.051897, 0.0296085, 0.0480002, 0.0394771, 0.06346, -0.0667987, -0.0108229, 0.0897999, 0.0411706, 0.0363021, -0.0744331, -0.00435698, 0.0994784, 0.0758036, 0.101286, 0.0120992, 0.0363218, 0.029719, -0.00321667, 0.0605758, -0.0958286, -0.00468822, 0.0166791, 0.0140837, 0.0016283, 0.0633586, -0.0178162, 0.034022, 0.00366839, 0.0279663, 0.0437938, -0.0884771, 0.0403042, -0.0433801, -0.110048, -0.101935, -0.100418, -0.0701238, -0.0884974, 0.00437342, -0.0704466, -0.055351, -0.12972, -0.0177909, -0.0672757, 0.0527674, 0.00229096, -0.0778961, -0.111572, 0.0493194, 0.0160064, -0.0818508, -0.0539159, -0.0139024, 0.0201062, -0.090315, -0.0538305, -0.0786366, -0.092647, 0.0831591, -0.0103175, -0.0271409, -0.00210196, -0.0418764, -0.103663, -0.0045123, -0.101301, -0.105624, -0.0564187, 0.0424461, 0.0462758, -0.122134, -0.0690118, 0.0446524, 0.0281128, 0.0723629, -0.114004, 0.00753082, 0.00724582, -0.0421852, -0.0606093, -0.00324478, -0.0838294, 0.0851331, 0.0925828, -0.0253547, -0.0359294, 0.0386032, -0.0241963, -0.0563394, 0.0625999, -0.124558, -0.074377, 0.0472912, 0.0643067, 0.0368879, -0.0704327, 0.0517273, 0.0822682, -0.0471515, 0.0672522, 0.0642302, 0.0625689, -0.0171257, -0.0686524, 0.0856234, 0.0158057, 0.0943735, -0.0890249, 0.0613443, 0.0480495, 0.0389879, 0.077031, 0.0758558, -0.0215182, 0.0336265, -0.0930611, -0.0730661, -0.123293, 0.0185545, 0.00839284, 0.0138881, -0.0559469, -0.0171273, 0.0804276, 0.056722, -0.10455, -0.0507687, -0.0870432, 0.0650226, 0.118106, -0.0224897, -0.0139615, 0.0829324, -0.0699789, -0.0985245, -0.0320051, -0.0892939, 0.0256722, -0.0431441, 0.0591153, 0.0697095, 0.0514695, 0.0853546, -0.0410932, 0.072425, -0.0591737, -0.00180746, -0.0240597, 0.101542, -0.045403, -0.0162895, 0.0510265, -0.0944913, -0.0800987, -0.012294, -0.132194, -0.0777776, 0.0494371, -0.0177195, 0.00387642, -0.0230991, 0.0433461, -0.102346, -0.0504951, -0.00339659, 0.00117481, -0.0298198, -0.0808436, 0.0406684, 0.0474781, -0.0802187, 0.0244123, 0.0246483, -0.0728196, -0.0271224, 0.0954408, 0.0141514, -0.0767584, -0.0979029, -0.0481625, -0.082196, -0.109361, 0.0782831, -0.143655, -0.0416373, -0.0932975, -0.0783339, -0.013068, -0.0609782, -0.091952, -0.0543246, 0.0304355, 0.100902, -0.0530985, -0.0909139, 0.072068, 0.076142, 0.0268353, 0.0656786, -0.0171073, 0.019125, 0.020274, -0.0614188, -0.0647021, -0.0655029, -0.0417346, -0.0302946, 0.00548669, -0.0882219, 0.0394663, 0.0394418, 0.0517758, 0.0206481, 0.0286987, -0.0597613, 0.0767949, 0.0534982, 0.0594479, -0.00962024, -0.0278693, 0.0671866, -0.0555416, -0.0873911, 0.0639602, -0.0897151, 0.0553022, -0.0849994, 0.0100395, 0.0640574, 0.0701967, 0.053785, -0.0935484, 0.0478564, 0.00156161, 0.0118758, 0.0470743, 0.0309988, 0.0471544, 0.0587798, -0.114254, 0.0386511, -0.0289542, -0.0872101, -0.0399207, 0.0650924, 0.00973719, -0.0415242, 0.00305313, 0.0152676, 0.0542342, -0.0851497, -0.070692, 0.0962682, 0.00876219, -0.0331519, 0.0165666, 0.0644091, 0.0530118, -0.0494281, -0.0542253, 0.0246242, 0.083401, 0.0350289, 0.087213, -0.101455, -0.031997, 0.0886163, -0.0959758, 0.0686966, -0.0282386, 0.025127, -0.066786, 0.0935377, 0.0531475, -0.0671407, 0.0699055, 0.0724667, -0.0775361, -0.00165588, -0.0994171, 0.081401, 0.00447362, -0.00912677, 0.0336054, -0.0957257, 0.0407775, 0.0202625, 0.0504998, 0.00392229, 0.0518719, 0.0173337, -0.0597772, -0.0862912, 0.0134896, -0.014401, -0.0170747, 0.0640151, 0.0894349, -0.0402051, 0.0117677, 0.0160056, 0.0310801, 0.0827134, -0.00170613, -0.0538934, 0.0569174, -0.0149171, 0.0900278, 0.0722611, -0.0798452, 0.0272832, 0.0944678, -0.00418053, -0.06424, -0.0205318, -0.0110784, -0.0923506, 0.0604275, 0.0198855, -0.00315546, -0.0613781, -0.0102979, 0.131095, 0.0454479, 0.0302297, 0.0321974, -0.0401478, -0.0092684, 0.0232876, -0.0672027, -0.0228515, 0.0331773, -0.190029, 0.0883828, -0.0303915, 0.0561358, -0.0175177, -0.0149881, 0.0168257, 0.0476894, 0.0587428, -0.115993, -0.0639307, -0.0920318, 0.0547301, -0.00259379, 0.0563651, -0.0386071, -0.0782339, -0.0333513, -0.0997988, 0.0524446, -0.0466568, 0.0354485, -0.00302552, -0.0407097, 0.0857014, 0.0633412, 0.047283, 0.049256, 0.00257577, 0.0475842, 0.0326585, 0.0265756, 0.0283415, 0.0597558, 0.0776809, 0.112321, -0.0551582, -0.073375, 0.0318322, -0.0167141, -0.0187688, 0.144775, -0.00777048, -0.02935, 0.017873, 0.0695794, -0.0599782, -0.0605052, 0.0582199, -0.0618493, 0.0312233, 0.0109676, 0.0936415, 0.0610676, 0.0915533, -0.0963088, 0.0906919, 0.0828077, -0.0526018, -0.0556607, -0.0931844, -0.00141041, 0.0916967, 0.0571777, -0.0908228, 0.0609292, 0.0399601, 0.0325923, 0.0469741, 0.00755504, 0.00322462, 0.0572496, -0.0635059, -0.0958629, -0.0446584, 0.0304387, 0.0784426, -0.012884, -0.0262758, -0.0696285, -0.0762512, -0.0944982, 0.0279636, 0.0835548, 0.0577646, -0.0812862, 0.0436719, -0.0462052, -0.111201, 0.0904879, 0.0959387, -0.0937932, -0.0945626, 0.0786917, -0.0683427, 0.000537129, 0.0113488, -0.0472153, -0.0433072, -0.0568531, 0.0289303, 0.048998, 0.133926, -0.0895221, -0.0519189, -0.0527187, 0.0901381, 0.00606846, 0.0787955, 0.0356346, 0.0339079, -0.124639, 0.0678392, -0.0493287, -0.0759958, -0.019426, -0.0504383, -0.0523578, 0.0816288, 0.0193262, 0.014629, -0.0363804, 0.193532, 0.0376539, 0.0768053, -0.103814, -0.0647287, -0.10245, -0.0338012, 0.0791891, -0.0650065, 0.0971213, -0.0513323, -0.0720023, 0.0200499, -0.0822901, -0.0178472, -0.0236998, 0.0410078, -0.0521851, -0.0249462, -0.0441038, 0.0437409, -0.0949272, 0.0530532, 0.0750048, 0.0408207, -0.0873991, -0.00429867, -0.0194479, 0.00582291, 0.049271, -0.0490808, 0.0578361, 0.0567691, 0.0349334, -0.0836503, 0.0205193, 0.15977, -0.0175699, 0.0362971, -0.0677601, 0.000644435, -0.0628317, -0.0074536, -0.0493303, 0.0452553, 0.00236991, 0.0846263, -0.0426168, 0.0235473, 0.0881224, -0.0603675, -0.105888, 0.00453037, 0.0280833, -0.0202099, -0.0568787, 0.00671803, -0.0255195, 0.128379, -0.0305834, -0.119053, 0.0261507, 0.0937153, -0.0391228, -0.0313476, 0.015953, -0.0540055, -0.116307, 3.85401e-06, -0.00738904, -0.0748179, -0.146115, 0.061991, 0.103721, 0.0147763, -0.0451348, -0.0424998, -0.0207444, 0.0312204, -0.0471393, -0.0544302, 0.0500326, 0.0691087, -0.0157651, -0.0669883, 0.0740753, -0.0735667, -0.0951588, 0.0661558, 0.030221, 0.100254, 0.0815469, -0.0037446, -0.0537999, 0.0371078, 0.0529995, -0.102015, 0.067523, 0.0499501, 0.0456151, 0.0215972, -0.0110122, -0.108216, 0.0318273, -0.0300868, 0.0269498, -0.000804678, -0.0508438, -0.0438842, 0.0819358, -6.07432e-05, -0.0707994, 0.0559902, 0.061046, 0.0280904, 0.067446, -0.0804938, -0.03338, -0.00576322, -0.0262446, -0.0853622, -0.084041, 0.0492367, 0.0449457, -0.0477919, -0.0463024, -0.0534951, -0.063222, 0.0420436, -0.0830048, 0.0105446, -0.0194612, -0.068397, -0.051382, -0.0916638, 0.0679505, 0.0599731, -0.0274966, 0.00324928, -0.0843858, 0.00939874, 0.0540799, -0.0491358, -0.017546, 0.0234137, -0.0978717, -0.0334363, 0.0401104, -0.0458966, -0.0751439, -0.000421803, 0.0177668, 0.0554295, -0.00936121, 0.0387334, -0.0178335, -0.0968684, 0.0125173, -0.00380071, -0.000255455, -0.0853169, -0.042904, -0.0157785, -0.0500313, -0.0570813, 0.00400299, -0.0129456, -0.0779837, -0.0359711, 0.0157134, -0.0431828, -0.0343844, -0.063862, -0.0735566, -0.0216465, -0.125026, -0.0703363, -0.0615062, 0.0478153, -0.0678721, 0.0767513, 0.0596359, 0.0628156, -0.100282, -0.0692516, 0.0770119, -0.00499944, 0.0314059, -0.0720965, 0.0487445, -0.113262, -0.0689071, -0.0882856, 0.0188877, -0.0666653, -0.0622142, -0.0933202, 0.0215401, 0.0475289, 0.0123538, -0.0887863, 0.059713, -0.0120632, -0.00606111, 0.0337831, 0.0253182, 0.00936391, -0.0884968, 0.0151287, -0.0167513, 0.0346634, 0.082209, -0.0798475, -0.0513273, -0.0205337, 0.0597042, 0.0449834, 0.0229322, 0.0516926, -0.040674, 0.0673928, 0.0803601, -0.0555536, -0.0944203, 0.059815, 0.0301676, -0.0573306, -0.0479704, -0.0568791, 0.0503841, 0.0291099, -0.0257618, -0.0642056, 0.0349487, -0.050159, -0.0538739, -0.0433473, -0.0907742, -0.00678429, -0.0583584, -0.0847319, -0.0147133, -0.0160912, 0.0377688, -0.0451352, 0.0228031, -0.00600422, -0.0489235, -0.040858, -0.0193523, -0.0424107, 0.00258089, -0.143702, 0.0479647, -0.017556, -0.0385296, -0.0239522, 0.0895735, 0.100192, -0.0394513, 0.0893548, 0.0623383, 0.014884, -0.00571841, 0.0231458, 0.0897092, -0.0148807, -0.0646465, 0.0294299, -0.0782679, -0.0244422, -0.0542087, -0.0602373, -0.0490275, 0.0252557, 0.00213924, 0.00926594, 0.0101488, 0.0754409, 0.0373493, 0.0772367, -0.0341977, -0.00541729, -0.0473818, -0.0490404, 0.0176232, -0.0240937, -0.0525547, 0.0313504, 0.0989393, 0.00699258, 0.083418, -0.111425, 0.0470363, 0.00579342, -0.0902793, -0.0885609, 0.0189527, 0.0232362, -0.124192, 0.000812844, -0.0263059, -0.0926745, -0.0376694, 0.0173457, 0.0688233, 0.0427847, -0.0963304, -0.0957122, 0.0547506, 0.0150808, 0.0561292, -0.0238604, 0.0881562, -0.0918177, -0.079243, -0.0717284, -0.0685086, 0.0213946, -0.0191574, -0.068968, -0.0741888, -0.0488765, -0.0745795, 0.0136144, 0.0261676, -0.057939, 0.0472702, -0.0112411, 0.00630898, 0.00466925, 0.0735236, -0.0508724, 0.0663876, -0.0651554, -0.0747583, 0.0600874, -0.0346505, 0.0213041, -0.108022, 0.075157, -0.0262199, 0.0865798, -0.0891104, 0.0944249, -0.00683916, 0.083095, 0.0470244, -0.0878243, 0.034629, 0.0128232, 0.0346822, -0.0783371, -0.0692188, -0.005602, 0.0668388, -0.0365824, 0.0667358, 0.0875952, 0.0388978, 0.0253686, -0.0511923, 0.0616793, 0.0505619, -0.0359173, 0.0846618, 0.0367834, 0.0377325, 0.0346738, 